100 200
乡邻 -0.085030 -0.142836 0.221178 -0.047642 0.064744 0.015319 0.081764 -0.005885 0.407988 0.084640 0.486942 -0.160492 0.526419 -0.409381 -0.137926 -0.720260 0.007197 -0.328285 0.225620 -0.474945 -0.004107 0.323016 -0.342051 0.215767 0.013603 0.599488 -0.080612 0.612553 -0.080635 -0.143235 0.089632 -0.256313 0.291776 0.533923 -0.229841 -0.091668 0.109030 0.300559 -0.093155 0.165520 -0.073043 -0.249397 -0.155978 0.104464 0.096317 0.324398 -0.342621 0.235227 -0.266086 -0.220916 0.207510 0.109133 -0.161498 -0.199686 0.432383 -0.010956 0.059914 0.169938 0.119080 0.338778 0.000073 0.516748 0.616803 0.151783 0.219360 0.236369 -0.209199 0.291452 -0.030851 0.227248 -0.683883 -0.218833 -0.199064 0.725690 0.113584 -0.065054 0.312298 0.163483 -0.128054 0.040927 0.352244 0.145079 0.059405 0.389666 0.093057 -0.137855 0.026903 -0.072105 -0.475899 0.279351 0.025284 -0.139356 0.391621 -0.020444 -0.162286 -0.179308 0.001248 -0.044078 -0.021277 -0.272985 -0.367335 0.007629 -0.350337 -0.058691 -0.527284 0.361910 0.114014 -0.360864 -0.187762 0.195763 0.173707 -0.059462 -0.251017 0.331612 -0.269612 -0.285973 0.076654 0.017101 -0.113615 -0.381763 -0.128516 -0.425638 -0.167317 -0.182899 0.398634 -0.083001 -0.203897 -0.138944 -0.104884 -0.192276 0.098950 0.210166 0.258080 0.104521 -0.132820 0.314729 -0.332752 0.333566 -0.073765 0.227200 -0.521855 -0.641795 -0.145074 -0.089417 0.100898 -0.298620 0.133471 -0.346978 -0.593554 -0.154307 0.029543 -0.043313 0.013653 -0.170232 -0.369071 0.029132 0.099988 -0.146190 0.199227 -0.092089 0.136990 0.313702 0.233140 -0.001600 0.211872 -0.065797 -0.430081 0.067026 0.180070 0.244965 -0.008395 0.107833 -0.511692 0.132570 -0.053423 -0.044733 0.277535 0.020074 0.149109 -0.127154 0.417456 0.158775 -0.143884 0.147100 -0.359010 0.001039 -0.244484 0.166703 0.366265 0.224742 0.133509 0.363334 -0.136732 0.196575 0.186231 0.165976 0.047928 -0.092534 -0.342334 0.231070
双足 0.201264 -0.425555 0.225254 0.210380 -0.122999 -0.087954 0.223266 -0.219650 0.028413 -0.108416 -0.235288 -0.474998 0.072234 0.137606 -0.267455 -0.713153 -0.200345 -0.125684 -0.188721 -0.443761 -0.143238 0.487040 0.242407 0.092022 0.119994 -0.258012 -0.042941 0.226628 0.035195 0.128212 0.639721 -0.863789 -0.022101 -0.257239 -0.336394 -0.134038 0.416726 0.100001 0.327575 -0.152048 0.565716 -0.096615 0.161571 -0.533925 0.452969 -0.687703 0.144482 -0.206840 0.032309 0.286857 -0.109290 0.307435 0.040595 -0.085793 -0.040681 -0.029832 0.217612 0.457616 0.327664 -0.078171 -0.319928 0.430409 0.276446 0.115252 0.369107 0.607925 -0.294821 0.054677 -0.517755 0.189641 0.377311 0.218362 0.392361 0.136434 -0.288208 -0.155490 0.312613 -0.007814 -0.018233 0.210642 -0.091853 -0.020481 -0.105668 0.208804 0.435046 -0.557673 -0.202867 0.091981 -0.275757 -0.376997 0.182775 -0.034202 0.157935 -0.058914 0.470774 -0.273462 -0.010647 0.129836 -0.190396 -0.340500 0.036372 0.392345 0.108718 0.497302 0.070714 0.292818 0.218119 0.157641 0.205236 0.130098 -0.228694 0.215750 -0.051202 -0.078840 0.114793 -0.009038 -0.356339 -0.176275 0.132471 -0.027447 0.082214 0.255479 0.004200 -0.041690 0.209167 0.497923 0.033767 0.131720 0.054075 -0.048803 -0.095045 -0.181683 0.244266 -0.039649 -0.051288 -0.229702 -0.153685 0.020611 -0.135964 -0.516767 -0.148096 -0.365504 -0.761483 -0.499989 -0.249461 0.172975 0.631172 0.248519 0.140254 -0.404098 -0.390137 0.023064 -0.042133 0.102976 0.101760 0.107580 -0.309555 0.197811 0.101981 0.169045 0.358782 0.277417 0.245426 0.355171 0.146781 -0.203954 -0.323345 0.233808 0.167271 -0.396741 -0.324892 0.086097 -0.249996 0.237544 0.241858 -0.232609 0.143394 0.170372 -0.190935 -0.055956 0.233327 0.119727 -0.129211 0.160898 -0.112456 -0.103954 -0.430596 -0.060260 0.060822 0.124683 0.193590 -0.002791 -0.165379 -0.015530 0.311083 0.631004 0.144743 0.007341 -0.427775 -0.201416
两张照片 -0.106181 -0.386219 0.073885 0.242805 -0.047341 0.097332 -0.077892 -0.390081 0.157931 0.451325 -0.371730 -0.292974 -0.002699 -0.297121 0.133356 0.065708 0.180057 -0.152257 -0.074610 0.032629 0.102307 0.279288 0.626829 0.035709 0.427467 0.031583 0.121112 0.146914 0.131786 -0.316135 -0.151306 0.072640 0.252020 0.311166 -0.211021 -0.101226 0.043777 -0.179002 -0.193794 -0.443473 0.130317 -0.494556 0.396991 -0.132792 -0.056540 -0.331663 0.010150 -0.851584 -0.174898 0.267874 -0.188882 0.082078 0.018052 0.219366 0.380676 -0.002886 -0.247880 0.289832 -0.131731 0.056127 0.274526 0.639316 0.251485 -0.008081 -0.065726 -0.250049 -0.048014 -0.117106 -0.017751 0.231262 -0.338761 0.209186 0.287150 0.118705 0.335217 0.297324 0.034399 -0.340009 0.044284 0.001432 0.020501 -0.122754 -0.163255 -0.056183 0.012766 -0.552284 -0.430501 0.306360 -0.393856 -0.375075 0.263779 0.322025 -0.065191 -0.155560 -0.259276 0.316154 0.302022 0.005490 -0.006783 0.189626 0.220471 -0.229165 -0.146570 0.492307 -0.085164 0.219915 -0.296703 -0.704982 0.419691 0.241169 0.106042 0.224448 -0.170729 0.323763 0.186572 0.023070 0.128766 -0.282494 0.209995 -0.262307 0.289566 -0.252340 -0.220515 -0.061096 0.147967 0.362312 -0.125838 -0.029329 -0.153973 -0.051206 -0.244389 -0.085315 -0.452876 0.228965 -0.136790 0.066625 -0.042015 -0.595613 0.035800 0.122819 -0.182770 0.030143 0.088415 -0.136065 0.441085 0.041066 0.558680 0.349975 0.023292 0.136768 -0.180197 -0.155051 -0.300219 -0.146482 -0.397127 -0.011263 0.185115 -0.073945 0.315918 -0.365164 0.265940 -0.233439 -0.338144 -0.058970 -0.111960 0.326452 -0.090201 0.096646 0.323824 0.346623 0.370269 -0.082786 -0.009172 0.400246 -0.417644 0.176917 -0.258843 -0.046771 0.040983 -0.098962 -0.141204 0.013707 -0.303897 -0.142637 -0.113068 0.245701 -0.124400 0.298851 -0.052826 -0.124303 0.253110 0.218862 -0.237967 0.559367 -0.083811 0.284755 -0.020724 -0.208115 -0.291764 -0.356113
丙申 0.243051 -0.346438 -0.242082 0.440463 0.210956 0.019679 0.259950 0.335712 -0.148098 0.603944 -0.175694 0.272929 -0.507804 -0.387361 0.459221 -0.531905 -0.311785 0.099418 0.156371 0.615073 0.079254 -0.028293 0.548860 0.452248 -0.265952 0.792878 0.003620 0.290836 -0.185596 -0.277622 0.361105 0.007471 -0.357842 0.264869 -0.229275 -0.422286 -0.326128 0.169382 -0.565671 0.525052 0.059561 0.284537 0.126183 0.179796 -0.130583 0.819433 -0.183566 -0.705582 0.403373 0.055806 0.568149 0.088383 0.060334 0.250850 -0.062063 -0.003427 0.182369 -0.003123 0.417305 -0.174851 0.386946 0.198470 0.518796 0.312156 -0.025996 -0.254658 -0.145645 0.440532 -0.383260 0.099290 -0.593145 -0.030444 -0.071839 0.136652 -0.380294 -0.294911 0.317701 -0.037121 -0.176593 0.317261 0.318010 0.220388 -0.291836 0.291930 -0.062398 -0.284378 0.094696 0.387288 0.327840 -0.537038 -0.003938 -0.031435 0.107033 -0.221593 0.065020 -0.659560 -0.500811 0.131676 -0.516320 0.023151 -0.288188 0.285728 0.520555 0.296942 0.006620 0.026878 0.167912 -0.750891 -0.034423 -0.534322 -0.676947 -0.297417 -0.801579 0.577901 0.159287 -0.261097 0.206008 0.540081 0.615916 -0.129906 0.323953 -0.152425 -0.206184 0.101572 0.155059 0.142172 -0.086851 -0.032695 -0.118185 -0.454700 0.232340 -0.097692 -0.326283 0.214451 -0.263075 -0.556924 -0.603091 0.076290 0.196869 -0.141184 -0.465399 -0.884218 0.124838 0.139054 0.510448 -0.250344 -0.211171 0.188786 0.445640 0.276069 0.041358 0.012906 -0.340919 -0.316369 0.005071 -0.310591 0.312383 0.006854 0.568528 0.118925 0.072207 0.193650 -0.401405 0.535973 -0.259541 -0.258265 -0.522803 0.348010 0.306328 0.102486 0.168698 -0.061076 -0.543010 -0.272550 -0.439295 -0.246254 -0.092865 -0.613657 0.360850 -0.050129 0.578331 0.192111 -0.043028 0.297809 -0.620916 0.453921 -0.533071 0.760176 -0.063068 0.037768 -0.282979 -0.013732 0.393526 0.220689 -0.102518 0.660910 -0.249586 0.446422 -0.502553 0.108465
高配版 -0.183681 -0.518482 -0.262186 0.217584 0.142917 -0.048268 0.276904 0.162746 0.118571 0.237355 -0.282454 -0.061194 0.194249 0.039963 0.130383 -0.065290 0.405674 -0.751144 -0.017504 0.055481 -0.267203 0.629332 0.403026 0.359859 0.032661 -0.125122 -0.075285 0.545412 -0.089187 -0.014233 -0.079809 -0.132380 0.067143 0.299870 0.056135 -0.094996 0.386357 0.144880 -0.722278 0.196741 0.189669 0.029765 0.397288 -0.251628 0.253879 -0.440071 -0.056254 -0.687921 -0.264368 -0.074428 -0.364363 -0.147678 -0.506896 -0.055679 -0.299585 -0.370012 0.230095 0.017498 -0.109982 0.190261 0.339696 0.225386 0.187606 -0.486212 -0.228869 -0.266451 -0.317330 -0.019762 0.349461 -0.066119 -0.185333 -0.148730 0.446209 0.364761 0.037083 0.865187 -0.145664 0.235675 0.205410 -0.234602 -0.362913 -0.096136 -0.194895 0.587087 -0.041648 -0.253024 -0.490871 0.174639 -0.326182 -0.441085 0.305508 -0.034627 0.006362 -0.319569 -0.211516 0.288625 -0.158811 -0.151969 0.187979 -0.269333 -0.608826 -0.295022 -0.182892 0.137464 -0.521042 0.085874 0.225816 0.161392 0.481006 -0.091771 0.224862 -0.113326 0.114656 0.059748 -0.097877 0.541694 -0.188463 0.286064 -0.132593 0.267188 0.076457 -0.044833 -0.006287 0.264200 0.262722 0.138945 0.206452 -0.013934 0.053459 -0.058816 -0.050814 -0.423903 0.201730 -0.241545 0.093473 0.295849 -0.084717 -0.562075 0.244448 -0.096982 -0.262669 -0.383693 -0.049158 -0.329448 0.144759 0.055541 0.299148 0.258780 0.218479 0.344762 -0.021848 0.042793 -0.168785 -0.045422 -0.120467 0.530907 -0.050761 0.151807 0.076306 -0.293024 0.910307 -0.027314 -0.423121 0.343789 0.063626 -0.114312 -0.339393 -0.246529 0.506588 0.162952 0.146227 -0.336284 -0.299389 0.312861 -0.117857 0.083646 0.018098 -0.005707 0.147232 -0.128437 0.301355 -0.460622 0.163159 0.034870 0.151671 -0.016822 0.039655 1.000003 0.067346 0.240292 -0.286121 -0.111426 -0.087211 -0.223474 -0.124112 0.302336 -0.027845 0.186315 -0.355528 0.217765
小影 0.099960 -0.164657 -0.230267 -0.036159 0.166059 0.137526 0.291666 -0.268788 -0.132797 0.072303 0.080432 0.249039 0.139452 -0.158152 0.053545 -0.369434 -0.053233 -0.175734 0.334954 -0.156521 -0.016826 0.170437 -0.119490 -0.043884 0.400115 0.119657 -0.572538 -0.125002 0.151528 -0.096869 0.024706 -0.014362 0.086780 0.130493 -0.117464 -0.102608 0.131016 0.038152 -0.081666 0.046462 -0.213418 -0.141697 -0.090689 0.024992 0.100861 -0.321931 0.078598 -0.469361 0.110184 -0.058215 0.137412 0.248698 0.238051 -0.194168 0.151310 0.244124 0.086662 0.303212 0.123936 -0.228387 -0.469574 0.333097 0.251420 -0.314222 -0.193612 0.131610 -0.085538 0.556986 0.498309 0.063720 -0.265987 0.099329 0.152691 0.335933 0.162025 0.261082 -0.238879 0.089946 0.065721 -0.009362 -0.305395 0.242661 -0.210716 0.173009 0.163684 -0.170510 -0.091019 0.613568 0.058934 -0.245109 0.271260 0.044093 0.019691 0.312771 -0.127357 -0.266694 0.242551 -0.051799 -0.025522 0.161741 0.019912 -0.249357 0.063835 -0.040561 0.153441 0.000731 -0.111468 -0.335741 0.258730 -0.268635 0.265862 0.056046 -0.052281 -0.000067 0.159667 -0.089114 0.197877 -0.406413 0.135986 -0.267428 0.325459 0.057431 -0.416343 0.037899 0.235426 0.259980 0.090240 -0.155390 0.225769 -0.040826 -0.000717 0.123441 -0.100272 0.170060 -0.052054 0.146644 -0.030348 -0.192971 0.315830 0.012470 -0.224412 0.072407 -0.039142 -0.134911 -0.205551 -0.021419 -0.186903 -0.203356 -0.067562 -0.075724 0.091832 -0.173797 -0.097441 -0.179239 -0.149336 0.133030 0.096326 0.199182 0.178131 -0.431388 0.238082 0.346787 0.242547 -0.005908 0.206630 0.013112 -0.269658 0.269343 0.212212 -0.161147 -0.121689 -0.068150 0.301893 0.202093 -0.104705 -0.075662 -0.088488 0.192653 0.213269 0.127583 -0.025922 0.037387 -0.256230 0.087978 -0.150399 0.105303 -0.639311 0.433657 0.000063 -0.086532 0.164489 -0.062710 -0.171799 0.113281 -0.075860 0.638138 -0.277672 0.075726 -0.148006 0.098091
卡器 0.082099 -0.332074 0.211371 -0.481191 0.337788 0.416196 -0.857196 0.347091 0.028345 0.010231 -0.378987 -0.027239 0.064520 -0.621112 -0.294380 -0.141121 -0.156031 -0.265346 -0.020061 -0.747669 -0.713213 -0.303274 0.225253 -0.199118 0.437572 0.141640 -0.020913 -0.047004 0.162333 -0.422856 -0.276084 0.242553 0.035371 0.196660 -0.617569 0.096528 0.267065 0.201674 -0.066783 0.527807 -0.124876 -0.926679 0.087346 0.076909 0.412087 -0.167824 -0.338983 0.184768 0.190294 0.075370 0.438096 0.420711 -0.142037 -0.698864 0.261651 -0.442772 -0.028186 0.891909 0.188662 -0.100797 0.387146 0.005724 -0.083667 0.143727 -0.883124 -0.208342 0.428154 0.059423 0.745531 0.140899 0.523045 -0.081681 0.235522 0.620592 0.373469 0.013921 -0.347816 -0.208644 0.087191 -0.337548 -0.413597 -0.157420 -0.480921 -0.251207 -0.216284 -0.534299 -0.511889 -0.223788 0.128107 -0.341878 0.646028 0.392657 -0.122842 0.097426 0.518007 0.347973 -0.110458 0.585030 -0.081117 -0.817302 0.074685 0.218347 -0.420440 0.182456 -0.067505 -0.090449 0.141777 -0.901130 0.974746 0.248109 0.094575 -0.278823 0.057556 -0.086732 0.198566 0.557599 0.433887 -0.077354 -0.127823 -0.430642 -0.129448 -0.144362 -0.223848 -0.105200 0.962662 0.360537 -0.446109 0.188615 -0.141582 -0.219185 -0.170031 -0.366972 -0.722778 -0.091615 -0.017044 -0.095161 -0.522404 -0.687594 -0.641205 0.327817 0.267053 0.008776 0.298218 0.000268 0.420410 0.518750 0.369715 0.336049 0.294996 0.371135 -0.209605 1.079297 0.193230 -0.226299 0.018985 0.371746 0.495413 -0.444313 0.237323 0.275864 0.273455 0.139119 0.024523 0.052733 -0.075148 0.415011 -1.160658 -0.410920 0.694775 -0.635834 -0.298765 0.025414 0.154832 0.660866 0.216496 0.401383 -0.272088 -0.353357 -0.299297 0.334273 0.660458 -0.733193 -0.345423 0.363441 -0.446442 0.460672 0.052161 0.317427 -0.286592 -0.484934 0.009577 -0.333519 -0.198763 -0.191226 -0.211357 0.506126 0.467147 0.218063 -0.583424 -0.055278
石凳 0.196151 -0.197595 0.223358 -0.354201 -0.407595 -0.289425 0.192180 -0.139522 0.702403 0.356371 0.047508 -0.127266 0.112502 -0.738894 0.230172 -0.867045 -0.332424 -0.128889 0.360656 -0.047350 0.304897 0.455740 -0.426194 0.189492 -0.051864 0.020435 -0.338765 0.303369 0.403746 -0.342234 0.576473 -0.478488 0.065858 -0.096772 -0.197465 -0.046244 0.170969 0.374981 0.081600 -0.157969 0.282407 -0.307913 -0.376984 -0.470585 0.258014 -0.259122 0.118297 -0.370931 -0.040254 0.174219 -0.055945 0.139985 -0.185285 0.130111 0.150065 -0.363233 -0.112110 0.486283 0.224720 -0.050389 -0.144009 0.273134 0.675519 -0.059042 -0.185607 0.030594 -0.558564 -0.006288 -0.558283 0.100169 -0.132282 0.132126 0.252364 0.536282 -0.165708 0.047120 0.033098 -0.004895 -0.535287 0.337794 -0.210888 -0.029519 -0.390048 0.180717 -0.060623 -0.541335 -0.211428 0.104853 0.031912 -0.217258 0.227647 -0.005015 0.521554 0.008534 0.271259 -0.316069 0.448336 -0.570548 0.382656 -0.236808 0.000511 -0.349907 0.132954 0.262888 -0.243694 0.136092 0.171651 -0.553933 0.142629 -0.099180 0.105794 -0.051024 -0.360259 -0.121352 0.144551 -0.182297 0.147367 -0.413235 0.104498 -0.075262 0.633715 -0.128402 0.234751 0.193504 -0.104564 0.334712 0.348486 0.764719 0.289636 0.292693 0.178604 -0.018259 0.208487 -0.166382 0.107262 0.251312 -0.007938 -0.332883 -0.155966 -0.028974 -0.092468 0.065407 -0.325139 -0.345569 -0.288737 0.036144 0.201541 0.396112 0.014961 -0.208343 -0.554731 0.036226 -0.003454 -0.305907 0.016591 0.175441 -0.162004 0.053669 0.404590 0.049878 0.134281 -0.364072 0.038192 0.110545 0.100811 0.341942 -0.389502 0.186410 -0.001668 0.234718 -0.300313 0.141264 0.187498 0.022615 -0.030514 -0.108211 -0.201069 -0.145291 -0.071745 -0.073855 0.011772 -0.002558 -0.581871 -0.136719 -0.045885 0.089411 0.045453 0.222904 0.171020 0.129513 0.311181 0.311768 -0.225265 0.421714 -0.196805 0.572590 -0.136513 0.288805 0.020110 -0.042532
精神风貌 0.291275 -0.215743 0.072388 0.075937 -0.245270 0.307177 0.199965 0.453417 0.024740 0.218939 0.139479 0.082881 0.213515 -0.252126 -0.193513 -0.065309 -0.202220 0.219079 0.355651 -0.467388 0.161969 0.483779 -0.053218 0.134185 -0.259439 0.138107 0.350343 -0.054165 -0.024284 0.314830 -0.319953 -0.175224 -0.148267 0.631277 -0.367960 0.010578 -0.090961 -0.202837 -0.163120 -0.230168 -0.014316 -0.378668 0.546313 -0.081495 0.337660 0.116890 0.095119 -0.080456 -0.114685 -0.288203 -0.173776 0.179133 -0.349958 -0.460794 0.388579 0.054178 -0.453306 0.066521 -0.076095 0.266699 0.103879 0.160045 0.339364 -0.009481 -0.101458 0.020770 -0.099997 0.221331 -0.774338 0.102732 -0.185945 0.360529 -0.211334 0.220176 -0.051622 -0.005084 0.363169 0.215860 -0.235384 -0.095979 0.370930 -0.074095 -0.045355 0.442240 0.172354 -0.130171 -0.047665 -0.156603 0.190157 0.173302 0.071562 -0.219580 -0.731573 -0.522577 0.077352 -0.611512 0.104804 0.680985 -0.365894 0.238107 -0.045097 -0.218118 0.281025 -0.042393 0.125645 0.690418 0.126825 -0.231713 -0.680519 -0.194866 0.131156 -0.524842 0.287012 0.137279 0.066087 -0.042640 0.086919 0.054803 0.190574 -1.331976 -0.105048 -0.676633 -0.305089 -0.015396 0.115995 0.346428 0.119334 -0.303377 0.126634 -0.138556 0.202258 -0.028251 -0.362173 0.051499 -0.348349 0.232079 -0.497001 0.028059 -0.466730 0.085227 -0.384469 0.527906 -0.211265 -0.371817 0.213565 0.789095 0.556477 0.248073 -0.097453 0.443813 -0.137854 -0.231519 -0.445002 -0.125869 0.088845 0.001256 0.043461 0.134088 0.356018 -0.712130 0.633475 0.044951 0.266472 0.436180 0.694992 0.136895 -0.459761 -0.038440 0.278866 -0.027675 0.195770 -0.289903 -0.243874 -0.068350 -0.098069 -0.353815 0.006192 0.035739 0.167959 0.160769 -0.058073 0.089088 -0.483800 0.183620 -0.243367 0.001439 -0.143769 0.061331 -0.007109 -0.445723 0.717795 0.635549 0.201369 0.197510 -0.087680 0.238189 0.080690 0.061966 -0.164327 0.110619
汽车公司 0.308020 0.069195 -0.006433 0.280835 0.218947 -0.208054 0.533139 0.054387 -0.008488 0.388525 0.058764 -0.132383 -0.112239 0.430397 0.045065 -0.127133 -0.110573 -0.430162 0.240239 -0.133091 0.000165 0.021322 -0.244101 0.621696 0.253169 -0.017948 -0.154720 0.201736 0.206506 0.627911 -0.024348 -0.149108 -0.273707 0.332466 -0.014019 -0.130262 0.003448 0.029464 -0.438229 0.596736 0.201197 -0.203364 0.238505 0.611557 0.070883 -0.160465 -0.221466 -0.051403 -0.246536 -0.230738 -0.511744 0.163146 -0.472359 0.125174 -0.683516 -0.366700 -0.111362 0.289365 -0.102177 0.224143 0.489401 0.430543 -0.004598 0.001094 0.039080 0.232796 -0.473689 0.327769 0.272083 -0.015112 -0.436505 0.091981 0.462375 0.317759 0.225749 -0.110799 -0.252829 0.001861 0.035507 0.015389 0.106618 -0.036021 0.161102 0.065779 -0.012567 -0.391180 -0.389528 -0.250170 0.035088 0.083576 0.120199 0.091654 0.009568 -0.186852 -0.095399 0.161648 0.247106 -0.052007 -0.323156 0.026136 0.039236 -0.166295 0.072877 -0.352873 0.024927 -0.225400 0.074093 -0.486990 -0.319717 0.034610 -0.385183 -0.208507 0.169965 -0.474438 -0.086833 -0.064911 0.217215 -0.254723 0.064256 -0.128134 0.289588 -0.312530 0.041034 -0.120702 0.254168 -0.032942 -0.518168 -0.312427 0.182591 0.372958 0.063492 -0.016755 -0.110048 0.451412 0.057216 -0.186625 -0.113155 -0.277527 0.396194 -0.205543 -0.095199 -0.181267 -0.336656 -0.243534 0.685016 0.037373 0.299111 0.271848 -0.010685 -0.488616 0.005774 -0.188300 -0.086445 0.324677 0.031932 0.338152 -0.009052 0.195315 0.465993 0.249637 0.351657 -0.061051 -0.159993 -0.136970 0.308325 0.024819 -0.200870 0.282018 -0.685682 -0.392871 0.257581 -0.141029 -0.544225 -0.139508 -0.273847 0.114129 -0.202232 0.135189 -0.412206 0.320181 -0.583818 -0.378062 0.085993 0.275553 0.223169 0.446732 -0.193941 0.646774 -0.107796 0.067781 0.248815 -0.111988 -0.368106 0.186312 0.176654 0.545735 -0.015605 -0.363885 -0.048672 0.568850
刚烈 0.452863 -0.151880 0.525438 -0.091813 0.066653 0.050326 0.193906 0.340482 -0.094042 -0.134567 -0.196793 0.077679 0.323692 0.171654 -0.062794 -0.211743 -0.143930 0.260103 0.621944 0.130101 -0.130382 0.110784 -0.084997 0.109350 0.188334 0.037696 0.267785 0.356148 0.301708 -0.175361 0.373437 -0.295623 0.074120 -0.279195 -0.103820 -0.487455 0.122341 0.201244 -0.203786 0.432982 -0.018342 -0.072861 -0.121319 -0.333213 0.452248 -0.256030 0.030137 -0.375344 0.003604 0.159241 0.123988 0.155257 -0.393341 -0.215952 -0.118875 -0.043897 -0.375602 0.096198 0.220207 0.290097 0.027427 0.248385 0.060681 -0.458777 0.163803 -0.125295 -0.247331 0.204753 -0.219475 0.424854 -0.281393 0.151476 -0.076807 0.233418 0.016153 0.431376 0.317579 0.283995 -0.217205 0.422088 0.254560 -0.177039 -0.065392 0.229443 0.438252 -0.051261 -0.130534 0.330353 -0.086639 -0.571501 -0.223912 -0.314423 0.326461 -0.019818 0.278470 -0.006629 0.402267 0.339126 -0.850120 -0.119354 -0.267521 0.325115 0.194134 0.132015 0.366658 0.432393 0.059638 -0.200498 -0.215267 -0.173592 -0.234575 -0.030914 0.149401 0.341481 0.216477 -0.116224 -0.217782 -0.265020 0.067930 -0.243770 -0.147287 -0.208077 -0.432732 0.248616 0.004209 0.345298 -0.046392 -0.380574 -0.111186 0.214572 0.186964 -0.250850 -0.049486 -0.167561 -0.203332 0.135560 -0.300857 0.190707 -0.082677 0.625567 -0.276566 -0.325043 -0.330920 0.045599 0.245497 -0.069700 0.255510 -0.705513 -0.147973 -0.087411 -0.261610 -0.238197 -0.412119 -0.017144 0.013462 0.166913 -0.255624 0.101691 0.384999 -0.232172 0.319964 0.088419 0.158950 0.025299 0.115913 -0.021663 -0.345545 0.176610 0.383616 0.258355 0.223244 -0.398104 0.019924 -0.101129 0.332034 0.132142 0.035661 0.040525 0.178739 -0.362456 0.774199 0.135327 -0.440948 0.176720 -0.132370 0.213750 -0.097976 0.440356 0.070862 -0.305335 0.071018 -0.109663 -0.168043 -0.168676 0.272949 0.668504 -0.267052 -0.106486 -0.312395 -0.160525
闹过 0.351098 -0.132820 0.293193 0.006671 0.576311 -0.269653 0.021573 -0.106016 0.195033 0.144108 0.261327 -0.164394 0.392069 -0.074275 0.317155 0.017869 0.146584 -0.295684 0.576545 -0.337941 -0.098862 0.482310 0.265236 0.074700 0.338702 0.059529 0.236356 0.049185 0.316576 -0.049659 0.308808 -0.044045 -0.286321 0.218853 -0.247220 -0.505428 -0.098260 0.341736 -0.037116 0.501457 0.155282 -0.373425 0.134176 -0.078876 -0.205396 -0.387092 0.051141 -0.415693 -0.240005 0.094635 0.004642 -0.147819 0.018790 0.208319 0.406095 0.312727 -0.084067 0.618745 0.460421 -0.230546 0.335365 0.438197 0.383862 -0.139761 0.221149 -0.184000 -0.253516 0.745918 -0.056109 -0.507777 -1.073055 0.192172 0.322159 -0.058531 -0.125608 0.079254 0.107445 0.069673 -0.257555 -0.093022 0.062653 -0.190040 0.072014 0.219990 0.007305 -0.110510 0.150485 0.512957 -0.053829 0.388826 0.281309 0.086244 0.065068 -0.005694 -0.262253 0.027303 0.247129 -0.092901 -0.081590 -0.057078 -0.537888 0.517152 -0.175220 -0.246118 -0.187159 0.068682 0.166126 -0.477172 0.008014 0.038621 0.411984 -0.320093 0.190829 -0.027606 0.365504 -0.600546 -0.305729 0.051956 0.204357 0.089318 0.077425 0.253233 -0.017823 0.073123 0.274058 -0.037020 -0.225377 0.117647 -0.116270 0.248947 0.071711 -0.108124 -0.117294 0.233598 0.063564 0.112807 -0.376198 0.130418 -0.322834 0.487498 -0.520366 -0.241700 -0.439304 0.084192 -0.270347 -0.233985 -0.303619 -0.109544 -0.007714 0.321778 -0.171772 -0.241152 -0.583836 0.192849 -0.674675 -0.086246 -0.175865 -0.250726 0.524396 -0.016426 0.014285 0.311739 0.194169 -0.194844 0.373423 -0.120897 0.008730 0.713161 0.066084 -0.247532 -0.257788 0.002801 0.045058 0.031607 0.167825 -0.145479 -0.182920 -0.372911 -0.195711 -0.218336 0.048347 -0.158594 0.057758 -0.278883 0.266674 0.254889 0.241205 0.751492 -0.149201 -0.359767 0.088059 0.056271 0.166355 -0.000416 0.225491 0.397944 -0.393949 0.091715 -0.392355 -0.188304
系统自带 -0.037357 -0.191569 -0.000957 0.187406 0.472237 0.152618 -0.549498 0.092631 0.300670 -0.086005 -0.539079 0.182564 -0.005743 -0.067480 0.585866 0.216261 0.354980 -0.640524 0.236382 -0.289781 -0.248463 -0.096380 0.490192 0.406437 0.456214 0.028998 -0.162706 0.177487 0.213985 -0.308840 0.261684 -0.001227 -0.102546 0.125281 0.094322 0.019378 0.405908 0.124383 -0.090363 0.183556 0.230522 -0.558929 0.398270 -0.299545 0.695260 -0.115527 -0.182739 -0.257119 -0.111229 0.230032 0.262653 -0.216531 0.375458 -0.341367 0.320038 -0.070251 0.075300 0.485348 0.098154 0.056744 0.554333 0.566971 0.056290 0.077482 -0.422302 -0.177598 -0.058079 0.813779 0.489530 0.129191 -0.201296 -0.152600 0.369789 0.455640 0.126840 0.293367 -0.318427 0.069115 0.185478 -0.194476 0.083063 0.052399 -0.196491 -0.389888 0.122218 -0.317921 -0.287496 0.321506 0.000262 -0.369273 0.218297 -0.006865 0.097561 0.035692 0.149066 0.365982 0.030006 0.417344 -0.136777 -0.573688 -0.143917 -0.157881 -0.015068 -0.211838 -0.120733 0.039782 0.185987 -0.711768 0.673947 0.124268 0.050737 -0.073303 0.176569 -0.008622 -0.408247 0.450008 0.319927 -0.303518 -0.031211 -0.556773 -0.143411 -0.085008 -0.030779 -0.046002 0.103842 0.163878 0.066250 0.036598 -0.426890 -0.009411 -0.155419 -0.587198 -0.401442 -0.330662 -0.519170 0.344716 0.481723 0.033323 -0.171729 0.329923 -0.150622 -0.127656 0.031042 -0.414221 0.124985 0.037262 -0.326785 0.050591 0.205359 0.252399 -0.051055 0.526181 -0.285714 -0.561028 0.288556 0.299009 -0.006126 0.040688 0.267597 0.422089 0.831015 -0.206889 0.183045 0.256718 -0.019454 0.399972 -0.582314 0.255953 -0.090385 -0.089706 -0.020610 0.075586 0.392446 -0.061310 0.094544 -0.038572 0.085226 -0.051102 -0.649771 -0.241997 0.307955 -0.405431 0.167344 -0.030344 -0.061628 0.475465 -0.275541 -0.223908 -0.409974 -0.347509 -0.215848 -0.109800 0.164183 0.187415 -0.240429 0.383942 0.317867 -0.049865 -0.419739 0.319274
雪女 0.360315 0.173475 -0.075993 0.003246 0.190500 -0.085405 0.426795 -0.196154 -0.277439 -0.219744 -0.132418 0.122419 -0.112110 -0.334618 0.048732 -0.145435 -0.152219 -0.129436 0.131810 0.201750 -0.186129 0.431927 -0.203858 -0.020473 0.186630 0.185308 -0.419639 -0.111005 0.384946 0.165995 0.939427 -0.183800 0.026942 -0.056453 -0.467309 0.118837 0.265251 0.098030 -0.018210 0.251403 0.138385 -0.349074 0.250298 -0.294035 0.189150 -0.173805 0.098643 -0.568114 -0.037549 0.385606 0.152582 0.023271 0.038583 -0.403187 -0.120080 -0.258727 0.100562 0.754752 -0.052912 0.054882 -0.514992 0.263398 0.258452 -0.044815 -0.352234 0.155955 -0.212258 0.160684 0.140371 -0.296833 -0.109890 0.014978 -0.207465 0.289546 -0.212343 0.478995 -0.003521 -0.162544 0.442248 0.107153 0.147183 -0.479434 -0.200722 -0.199393 0.524004 -0.336553 -0.584383 0.449800 -0.185587 -0.370759 0.045771 -0.484005 0.401192 -0.318187 0.270977 0.200567 0.471300 -0.158873 -0.359346 -0.059481 0.206632 -0.085115 0.413391 0.331018 0.040970 0.300593 0.130530 -0.075197 -0.064602 -0.470896 0.004335 0.131578 0.062549 0.176350 0.303802 0.124812 0.017635 -0.436858 0.441008 -0.222436 0.237288 -0.261862 -0.172261 0.277570 0.524313 0.337472 -0.048321 0.199817 0.064273 -0.294929 0.149319 -0.238288 0.252426 0.216574 -0.146212 0.251918 -0.036437 -0.147575 0.377684 -0.141869 -0.366979 -0.307622 -0.061547 -0.073082 -0.368151 -0.244405 -0.373352 -0.557846 0.106040 0.142038 -0.236097 -0.253044 -0.458776 -0.151083 -0.027187 0.076676 -0.139509 0.108368 0.179449 0.008645 0.154275 0.203822 0.100381 0.198381 0.078155 0.289758 0.100822 -0.237507 0.192281 -0.194240 -0.262143 -0.298169 -0.410722 0.074434 0.227098 -0.327756 0.337755 -0.161929 0.085624 0.090684 0.299387 0.034530 0.027597 0.020641 0.140393 0.380578 -0.486911 0.021236 -0.147879 0.102278 0.192559 -0.361684 0.181332 -0.019629 0.455570 0.770762 -0.244475 0.143925 -0.249917 -0.213689
凤翔 0.049507 -0.347643 -0.143773 0.239859 -0.359563 0.195342 0.302308 0.251596 0.030492 0.237444 0.012612 -0.115022 0.438095 -0.137557 0.048962 -0.217062 -0.433705 -0.253924 -0.011418 -0.106134 -0.158246 -0.302643 -0.544350 -0.121304 -0.147030 -0.070069 0.134468 0.130164 0.185303 0.090883 0.260835 -0.218277 -0.403600 -0.221262 -0.046743 -0.280342 0.050513 0.227147 -0.161017 0.316149 0.138246 0.305729 -0.057928 0.030237 -0.135981 -0.361751 -0.101590 -0.413602 0.139916 -0.003843 0.054969 0.346702 -0.031210 -0.353077 0.179719 -0.069116 0.402687 0.000718 -0.122510 -0.215200 0.020902 0.155895 0.410095 0.478621 0.066574 -0.229317 -0.028780 0.033504 0.202798 -0.249935 -0.146755 -0.239401 -0.229585 0.461935 -0.027676 -0.389079 0.088741 0.339764 -0.329949 0.141209 0.222896 0.014842 0.261433 0.288770 0.176270 -0.220886 0.025072 0.015059 -0.138468 -0.082458 -0.032894 0.303773 0.487783 -0.027016 0.184879 -0.056772 0.184565 -0.027145 -0.375349 0.215670 -0.216001 0.037631 -0.172097 0.317798 -0.229354 0.472585 -0.091445 -0.200640 -0.335934 0.028525 0.125500 -0.002794 0.208314 0.281932 0.116835 0.065724 -0.039312 0.157525 -0.109178 -0.525403 0.069032 0.049550 0.147356 0.415345 0.268170 0.247998 -0.343372 0.025713 0.005364 -0.159378 -0.194458 -0.177927 -0.354355 0.063787 0.075686 -0.102047 -0.216797 -0.288104 -0.276589 -0.054261 -0.281520 -0.386792 -0.095792 -0.246287 0.167814 0.570141 -0.222108 -0.092998 -0.083629 -0.043175 -0.380051 0.009376 -0.024432 -0.270951 -0.401859 -0.266358 0.010728 0.151226 0.527939 -0.006686 0.048915 0.283249 0.063260 0.311109 0.297263 0.165936 0.220403 0.132085 0.100110 -0.236130 -0.039320 -0.202376 -0.382875 0.102786 -0.268031 -0.114652 0.065586 -0.140771 0.073573 0.009008 0.204228 -0.019240 -0.416928 0.127950 -0.454350 0.445486 -0.243546 0.605785 0.075255 -0.064109 0.192931 0.176902 0.414045 0.048221 -0.006977 0.517238 0.011036 -0.108329 -0.033546 0.109744
本末倒置 0.410656 -0.824043 -0.087647 -0.104143 0.435649 -0.197116 -0.076045 0.337403 0.121561 0.690693 -0.047585 0.008993 0.491881 -0.211550 -0.225255 -0.112705 -0.003767 -0.111953 -0.033524 0.369998 0.157930 0.365518 0.179275 0.571029 0.619654 -0.007106 -0.410145 0.291960 0.238018 0.070866 0.180740 0.010373 0.064728 -0.243269 -0.081046 0.079386 0.086001 0.550280 -0.277424 0.127659 -0.270154 -0.317000 0.103049 0.008884 -0.642293 -0.093009 -0.111054 -0.326273 0.073371 -0.526744 -0.022932 -0.025129 -0.098312 -0.229997 -0.070930 -0.205344 -0.127009 -0.287142 -0.150132 0.141504 0.180066 0.214074 0.027733 0.168004 -0.362339 0.748978 -0.508415 0.544337 -0.263242 -0.062639 -0.182300 0.193560 -0.182428 0.001007 0.440590 0.348140 0.338850 0.115222 -0.163494 -0.216077 -0.092327 0.665867 -0.504122 0.337604 0.248255 -0.332801 0.114194 0.335248 -0.056157 0.008710 0.420276 0.105260 0.315478 0.105638 -0.044212 -0.100972 0.225044 0.302142 -0.240750 -0.401354 0.180443 0.404259 -0.179268 -0.007426 -0.433772 -0.106755 0.121674 -0.152923 -0.095606 0.363558 0.009878 -0.167799 0.230418 -0.421150 0.127253 0.192117 -0.336186 -0.310890 -0.085030 -0.696803 0.346345 -0.095527 -0.165337 0.364134 0.164705 -0.096021 -0.140997 -0.072653 -0.109954 -0.002744 -0.259283 0.063084 -0.162683 -0.329181 -0.170214 -0.094287 0.030053 -0.074435 -0.163952 -0.180611 -0.484010 -0.501645 -0.470708 0.041609 -0.151667 -0.017417 0.266944 0.126609 0.116546 0.000961 0.152074 0.332036 -0.308318 0.114879 -0.132664 -0.049144 0.327805 0.421563 -0.461871 -0.202568 0.395025 -0.248336 -0.356455 0.209001 0.238708 -0.420757 0.088542 -0.149646 0.224727 -0.141399 0.191460 -0.048399 0.114350 0.225604 0.386977 -0.023199 0.174331 0.076049 -0.200737 0.346403 0.109401 -0.008853 -0.037713 -0.002961 -0.195641 0.123594 -0.407970 0.306998 0.122302 0.272436 -0.060201 0.033531 0.277568 -0.351710 -0.153056 0.365008 -0.337462 -0.319784 -0.213238 0.137458
同时代 0.060023 -0.043809 0.628335 0.002828 0.852996 0.072202 -0.063221 0.163304 -0.161521 0.429851 0.045047 0.204987 -0.121668 0.051479 -0.114843 -0.782975 -0.114135 -0.021553 0.103436 0.023365 0.064441 0.255173 0.131433 0.031608 -0.068135 0.147550 -0.109010 -0.093558 0.067198 0.235444 -0.301426 -0.264400 0.109288 0.086789 0.210677 -0.127949 0.163319 0.302547 -0.234029 0.173466 -0.002953 -0.269143 0.614207 0.059184 0.177209 0.473047 -0.090633 -0.708617 0.049163 0.061491 -0.319167 -0.160903 -0.306056 0.005698 -0.101468 -0.123277 -0.120441 -0.048110 0.463495 0.596072 0.164833 0.390509 0.578402 0.119609 0.164304 0.056094 -0.319742 0.219240 -0.017401 0.243786 -0.315933 -0.035956 0.204554 0.540631 -0.523591 0.463807 0.112779 0.483650 0.281766 0.059299 0.339695 -0.223403 0.091174 -0.259433 0.390146 -0.429710 -0.388005 0.120632 -0.103819 -0.299003 0.003198 -0.203130 -0.345897 -0.120792 0.049141 -0.028265 0.110071 0.200159 -0.340498 -0.366922 -0.207357 0.018073 -0.185723 0.075232 -0.145048 0.426050 -0.261420 -0.493099 -0.049506 -0.143709 0.004950 -0.310253 0.558383 0.012825 0.106876 -0.192178 -0.158597 0.033623 -0.105813 -0.087361 0.143540 0.054281 -0.289764 0.407474 0.244146 0.361062 -0.116576 0.360873 -0.189323 0.061798 -0.161902 0.457530 -0.068335 -0.070123 -0.223642 0.143086 0.031637 -0.060177 -0.297694 0.305866 -0.405886 -0.143311 0.151832 0.003014 -0.583411 0.466559 0.887750 0.044396 -0.282906 0.594254 -0.428035 -0.268478 -0.093714 0.325356 -0.226174 -0.103366 0.181594 0.234182 0.119281 0.035723 0.278255 -0.281120 0.510376 0.157156 0.053221 0.093973 -0.348646 0.176865 -0.088749 -0.063568 0.000857 -0.211558 -0.322713 0.065345 -0.185871 0.340319 -0.187021 -0.172738 -0.268158 -0.000386 -0.063356 -0.315294 -0.145337 0.064066 0.145867 0.445596 -0.172037 0.674937 -0.037024 -0.225263 0.007991 0.226458 0.164414 -0.115502 0.040467 0.032678 -0.236160 0.030878 -0.396226 0.076171
夹板 0.325241 -0.462042 0.103038 0.157104 0.147220 -0.132635 -0.170388 -0.122726 0.363883 -0.333677 -0.007979 0.077666 0.384775 0.080892 0.101775 0.186059 0.208261 -0.213566 -0.035682 -0.487325 -0.182882 0.185870 0.120189 0.090277 -0.151000 0.386685 -0.182755 0.237755 0.438263 -0.070415 0.183293 -0.196850 0.007831 -0.138838 -0.137160 -0.006332 0.151133 0.251071 -0.153902 0.144480 0.922063 0.070067 -0.274489 -0.307217 -0.014088 0.011391 -0.172694 -0.360556 0.099475 0.009640 -0.236780 0.186814 -0.104018 -0.319763 -0.037679 -0.186836 -0.174626 -0.190569 -0.322426 0.375517 -0.043717 0.295037 0.243600 0.056230 -0.096075 0.344872 0.077465 0.085525 -0.011519 0.083307 -0.086407 0.419764 0.460489 0.311671 0.372101 0.049465 -0.016030 -0.246574 0.008596 0.126731 -0.356951 -0.409609 -0.030958 0.538409 0.096287 -0.648254 0.295248 -0.041059 -0.567110 -0.263106 0.342093 0.015658 -0.144823 -0.095731 0.260915 0.092426 0.098259 -0.188055 -0.126051 -0.465839 -0.003608 0.622933 0.052230 0.253004 -0.128950 -0.060481 0.626344 -0.321967 0.444268 0.108917 0.006903 0.042559 -0.640844 -0.069684 -0.034702 -0.198791 0.334425 -0.411210 0.076428 -0.336352 0.118283 0.258965 -0.175333 -0.338478 0.121308 0.366015 0.003198 0.093618 0.266122 -0.247913 -0.062142 -0.004173 -0.049101 -0.386090 -0.031184 -0.211083 0.517497 0.206339 0.099228 0.482261 0.106377 -0.357175 -0.067786 -0.771281 0.053419 -0.213229 0.332069 -0.171763 -0.046037 0.079466 -0.623112 -0.359738 0.449527 0.007938 -0.425829 0.291471 -0.154977 -0.000522 -0.082283 -0.261719 0.405745 -0.239843 -0.116716 0.398718 -0.025550 -0.088975 -0.826017 -0.109704 0.011127 0.008754 -0.169930 0.310784 -0.032173 0.079211 -0.335333 0.164025 -0.334308 -0.095752 -0.240604 0.084446 -0.074252 -0.195129 -0.102222 0.230187 -0.578043 -0.106726 -0.315859 0.116508 -0.457953 -0.308453 0.411745 0.521527 -0.042774 0.199690 0.253874 0.000654 0.251716 -0.277256 -0.225410 0.004828
操作人员 0.111711 0.037260 -0.210231 0.455113 -0.187787 -0.119393 -0.042299 -0.259335 0.354838 0.111703 -0.532685 -0.455737 -0.175925 0.299670 0.052334 0.062655 0.113216 -0.073412 0.021729 -0.199380 -0.197694 -0.065911 -0.147485 -0.013362 0.279545 0.116643 -0.131257 -0.008251 0.311546 0.198057 0.230766 -0.392278 0.224448 0.344691 -0.272284 -0.009351 0.447201 0.484287 -0.036731 0.404520 0.231581 0.166556 0.413962 0.090617 0.321510 0.094322 -0.388762 -0.102097 0.507243 0.085805 -0.088570 -0.321337 -0.093969 -0.133024 0.191475 0.153401 0.172924 0.287322 -0.255264 0.109204 -0.180386 0.179182 0.361686 -0.113223 -0.337696 0.313387 -0.097578 -0.088194 0.257457 0.146902 -0.267285 0.307694 0.018671 0.094179 -0.114611 -0.168367 0.348634 0.051786 0.230638 -0.123656 -0.283513 0.428373 0.303000 0.072987 0.048560 -0.178053 -0.002410 0.074626 -0.321179 -0.111573 0.535393 -0.100545 -0.390034 0.281783 0.255722 0.201850 0.278739 -0.109474 0.003401 -0.370276 -0.162178 -0.164746 -0.413831 0.103019 -0.233333 0.163476 -0.067789 -0.127535 0.033063 -0.474839 0.048380 -0.211935 0.420041 -0.200516 0.129827 0.047737 0.032212 -0.020673 -0.078707 -0.819415 0.460193 -0.337247 0.199520 0.190362 0.717727 0.005718 -0.303786 0.457261 -0.442456 0.159007 -0.229352 0.296509 -0.436326 -0.422849 -0.278998 -0.154151 -0.183085 -0.084946 0.252897 -0.256683 0.071132 -0.658011 -0.576872 -0.430105 0.332587 0.202805 0.103201 0.192505 0.260790 -0.082817 -0.189035 0.106094 0.141967 -0.299262 -0.081150 0.193906 0.182693 0.052570 0.451344 -0.133246 0.487605 -0.394935 -0.239705 0.112384 0.074887 -0.312798 -0.396229 -0.190632 0.225728 -0.636134 0.205146 -0.260271 0.087170 -0.006930 -0.214146 0.058325 0.208850 0.415386 -0.265124 -0.031671 -0.165363 -0.168770 0.090885 0.335705 0.126261 0.121466 -0.114021 -0.471408 -0.440505 -0.098912 0.479516 0.329069 0.308068 0.282163 0.471668 -0.291540 0.454310 -0.050590 0.171673 0.004481
妇科炎症 0.384860 -0.453473 -0.104569 0.282859 0.052770 0.295186 0.029647 0.183992 0.380739 -0.109700 0.057562 0.158095 -0.281104 -0.282990 -0.261175 -0.193374 -0.352816 -0.705197 0.277890 -0.134198 -0.560186 -0.314692 0.709478 -0.040919 0.091275 -0.122035 -0.109499 -0.178223 0.215946 0.340389 0.600593 -0.235158 0.274579 0.240866 0.100973 0.293087 -0.333369 0.034924 0.209078 0.053890 0.303255 0.098565 -0.349614 -0.177927 -0.252268 0.449926 -0.441899 -0.443705 0.381538 0.155914 0.324736 -0.360160 -0.432492 0.096079 0.067412 -0.208120 -0.575457 0.589304 0.732396 -0.127676 -0.083756 0.007672 -0.161435 -0.196140 -0.107417 -0.103450 -0.053773 -0.104366 0.350275 -0.266881 -0.428852 0.021930 0.005371 0.197029 -0.033275 0.220036 0.459844 -0.292516 -0.621534 0.242367 -0.321589 0.177117 -0.438378 0.300782 0.681562 -0.824945 0.124915 0.471230 -0.067854 -0.811822 0.926739 -0.225485 -0.470788 0.076280 0.053350 -0.132941 -0.770076 0.175862 -0.404209 0.382614 -0.190132 0.223939 -0.262450 -0.430306 0.082730 0.082198 0.456087 -0.183334 -0.015415 0.128631 0.149872 0.158190 0.130195 0.109008 -0.081739 0.250491 0.055532 -0.230419 0.529224 0.140372 0.483804 -0.264796 0.012307 0.161482 0.615559 0.056523 0.377534 -0.439230 0.315398 0.476319 0.298010 0.097037 0.045936 0.132540 -0.581045 -0.201332 -0.013854 -0.100779 -0.142176 0.219039 -0.816683 0.086609 -0.503473 -0.686068 -0.260140 0.320393 0.059546 -0.515113 0.122077 -0.165494 0.421429 0.100499 0.033496 0.146955 -0.420556 0.229299 0.442375 0.222036 0.587717 -0.241057 0.857134 0.782746 -0.348358 0.292344 0.456883 -0.072161 -0.489522 0.689151 0.201846 0.233759 -0.317801 0.151364 -0.155211 0.192204 0.318316 0.398263 0.108904 0.252537 -0.082340 0.237629 0.144821 -0.627524 -0.334908 0.288956 -0.392469 0.470680 -0.018509 -0.089788 -0.493310 -0.075751 0.380733 -0.726208 -0.032754 0.078487 -0.171705 -0.011429 0.441363 -0.295909 -0.622699 0.425226
套取 0.227793 -0.254171 0.483046 0.136907 0.142344 0.378276 -0.341368 0.297806 0.114792 0.068997 -0.225115 0.165014 0.640960 -0.499508 -0.245284 0.161424 0.440858 -0.394623 -0.046536 0.026548 -0.625815 0.420111 -0.306171 0.220456 0.298258 0.554976 -0.153045 -0.097177 0.303945 0.299030 0.064841 0.552079 0.021288 0.086529 0.322535 0.350678 0.320566 0.007896 0.131049 -0.259468 -0.198486 -0.003737 0.316196 0.314697 -0.392012 -0.174604 -0.896542 -0.002371 -0.003935 -0.519745 -0.294825 -0.160669 0.301449 -0.131039 -0.068699 -0.209845 0.616024 0.170126 0.215253 -0.174602 -0.298327 0.723840 0.305591 0.153382 -0.448485 -0.223934 -0.732268 -0.042593 0.137596 0.105587 -0.279132 0.572921 -0.032916 0.806690 0.461495 -0.304627 0.028635 -0.135146 -0.062186 -0.542530 -0.404664 0.135667 -0.547712 0.345464 0.270272 -0.334640 0.113490 -0.217696 -0.094627 -0.475213 0.458648 0.089836 0.119684 0.270824 0.105346 -0.167184 0.290306 0.378007 -0.204507 -0.555946 0.251763 -0.358622 -0.357806 -0.240081 -0.423569 0.417940 -0.665576 -0.056763 0.115592 0.155792 0.094078 0.419494 0.008816 0.317899 -0.089302 -0.145907 0.033847 0.055645 0.070445 -0.633851 0.091095 -0.244208 -0.050888 -0.184236 -0.225176 0.015948 0.143457 0.231980 0.143722 -0.490069 0.134010 -0.134474 0.132017 -0.272988 -0.084580 -0.096589 -0.423097 -0.178628 -0.127215 0.012874 -0.154079 -0.312584 -0.260713 -0.329585 -0.018980 0.122185 0.102198 0.343400 0.378854 -0.332673 -0.154201 0.225189 0.530040 0.066975 -0.162219 0.273453 0.127481 0.181612 -0.109414 -0.239143 0.349882 0.190502 -0.223049 0.287827 0.312368 -0.159510 -0.051241 0.015175 0.075392 -0.333815 -0.120858 -0.100854 -0.234656 -0.439300 0.197805 -0.200723 -0.195715 -0.134242 0.076014 -0.213850 0.099576 0.297071 -0.096467 -0.035452 0.427834 0.374881 -0.017985 0.396165 0.170359 -0.174116 0.338582 -0.420375 0.215889 -0.143101 0.495017 0.226903 -0.327143 -0.190977 -0.245323 -0.014430
会真 0.497230 -0.057820 -0.016855 0.112563 0.166759 -0.255839 0.070955 -0.345857 0.197749 0.165380 -0.207849 -0.138205 0.454414 -0.146108 -0.037102 -0.155533 -0.030660 -0.118322 -0.141361 -0.109331 0.070952 0.494722 -0.324417 -0.106242 0.293736 0.192871 0.117890 0.266045 0.375005 0.088230 0.029916 0.013393 -0.030233 -0.168241 -0.107253 -0.343587 0.035737 0.112848 -0.123662 0.298607 0.241504 -0.213611 0.214420 -0.190691 0.066111 -0.178030 -0.213381 -0.356576 0.148543 0.083338 -0.135327 -0.012526 -0.355644 -0.286070 0.148244 -0.194731 -0.341505 -0.100365 0.211008 0.319598 0.084177 0.360744 -0.056894 -0.370638 0.098810 0.100019 -0.035449 0.008199 0.067994 -0.550127 -0.616131 0.452019 0.414000 0.082482 -0.294485 -0.054728 -0.156383 0.064125 0.166961 0.312063 0.261551 -0.046015 -0.362075 0.258193 0.167976 -0.193228 0.333256 0.491120 -0.145549 -0.576594 0.136455 0.282702 0.462655 0.278017 0.007795 0.106183 0.102650 -0.050164 -0.297658 -0.269215 -0.005777 -0.105154 -0.065624 -0.104642 -0.253507 -0.247323 -0.124424 -0.434476 0.060030 -0.162876 -0.374790 -0.200996 0.177156 -0.230658 -0.016628 0.213595 0.008673 -0.129978 -0.263902 -0.198882 0.175171 0.011281 -0.445407 0.288184 0.122491 -0.016011 -0.045223 -0.144552 -0.061889 -0.142088 0.199014 0.064191 0.133462 0.199072 -0.090264 -0.289492 -0.079554 -0.240642 -0.116522 0.569047 -0.340271 -0.562686 -0.290934 0.226090 -0.406772 0.118347 -0.082213 0.082558 -0.181241 0.176351 -0.028794 -0.083822 -0.370285 0.215514 -0.102657 0.135584 0.163748 -0.147680 0.103288 -0.229900 0.251875 -0.040050 0.019435 0.132931 0.402135 0.150718 -0.101387 0.394483 0.094362 -0.021801 -0.265168 -0.137812 0.074036 0.021392 -0.022488 0.089517 0.087387 -0.248727 -0.476754 -0.127700 0.378471 -0.133396 -0.195708 0.000737 0.127767 0.169281 -0.098275 0.173074 0.187113 -0.267469 0.070665 0.200901 0.126585 -0.322226 0.142370 0.670317 -0.243818 -0.115137 -0.205677 -0.019331
溃散 0.455763 -0.082727 0.276098 0.227938 -0.011652 0.195852 0.483078 -0.010553 0.696513 -0.242837 -0.072166 -0.464949 0.403240 0.050510 0.100106 -0.416045 -0.221803 -0.251807 0.191149 -0.180293 -0.318485 0.322532 0.124828 0.232920 0.195352 -0.022287 0.150522 0.049599 0.121005 0.124393 0.241470 0.224817 0.284596 -0.298057 -0.008602 0.108451 0.235437 0.074517 0.076701 -0.107115 0.419203 0.307296 0.360115 -0.450734 0.061977 -0.243295 -0.159517 -0.194996 0.289647 0.142719 -0.374355 0.197904 -0.519077 -0.773841 0.279043 0.248503 0.439728 0.255443 0.019738 0.007581 0.343061 0.328047 0.567802 -0.235300 -0.142837 0.028509 -0.117305 0.197293 -0.301320 -0.165456 -0.096275 -0.066441 -0.027115 0.316085 -0.271497 0.091945 0.210566 0.370548 -0.502589 0.152900 0.287396 -0.357621 -0.266216 0.347382 0.230063 0.118713 -0.175820 0.120398 -0.327153 -0.535018 -0.146213 -0.002495 0.193142 0.015752 0.000735 0.259855 0.170283 0.245318 -0.579889 -0.205909 0.073534 0.175469 0.037392 0.176714 0.008736 0.000710 -0.189893 -0.435220 -0.028405 -0.367519 -0.202808 -0.072978 -0.103497 -0.261965 0.177272 0.312894 -0.587573 -0.341129 -0.068934 0.027924 0.043533 0.084085 -0.392701 0.466548 0.301966 0.253432 -0.353798 0.020144 0.313363 -0.195140 0.036748 0.137025 -0.113597 -0.258277 0.000839 0.015893 -0.134166 -0.132025 0.346814 0.280554 -0.395444 -0.327573 -0.537085 -0.263542 -0.004264 0.512438 0.001992 -0.146628 0.210344 -0.136226 -0.465341 0.225056 -0.438500 0.229240 -0.204417 -0.311081 -0.052024 -0.484332 0.129601 0.017809 0.172002 0.179488 -0.184127 -0.165287 -0.066834 -0.101455 -0.170980 0.313081 -0.103912 -0.242058 -0.229276 0.027292 0.052533 0.185951 0.452687 -0.565610 0.819310 0.170109 0.069383 -0.092050 0.322353 -0.072901 -0.148108 0.331673 -0.232171 0.654635 -0.441990 0.438476 -0.230924 -0.354388 0.464660 -0.025214 0.380522 -0.044128 0.207872 0.318886 0.087795 0.137381 -0.130518 0.292913
夕颜 0.087844 0.184907 -0.281720 -0.131585 0.159051 -0.020884 0.094553 -0.330825 0.118380 -0.074413 -0.020015 0.594113 0.156089 -0.323972 0.436659 -0.334027 -0.315977 0.210749 0.388057 -0.163498 -0.211182 0.268847 -0.149600 0.401083 0.125594 -0.080122 -0.349362 0.093172 0.283119 0.232256 0.383937 -0.256955 0.031854 0.076537 -0.194478 -0.235152 -0.084830 -0.375010 -0.195708 0.231856 -0.044120 -0.206562 -0.184112 -0.174302 -0.182209 -0.422443 0.055397 -0.208947 0.197440 0.044037 0.171449 0.122290 0.168859 -0.315074 0.254664 0.048402 -0.026940 0.327904 0.034982 -0.046398 0.034247 0.068353 0.437642 -0.067516 -0.120117 0.357930 -0.119678 0.076638 0.319034 -0.036722 -0.328566 -0.047085 -0.328973 0.500235 -0.185725 0.289742 0.278471 0.311855 0.127870 0.093852 -0.279606 0.251830 -0.137482 -0.000061 0.176865 -0.435524 0.217752 0.407883 -0.307996 -0.161254 -0.070128 0.094335 0.327617 0.054560 0.133031 -0.067375 0.036115 -0.201544 -0.349482 -0.000707 -0.112959 -0.081101 -0.102659 0.170892 0.315971 0.236246 -0.112279 -0.372558 -0.025354 -0.233625 -0.147443 0.103958 -0.274834 0.136553 0.217331 0.084683 0.167423 -0.260215 0.297018 -0.249326 0.105136 -0.094467 -0.125898 0.551937 0.212232 0.144363 0.128533 0.127152 0.138731 0.092599 0.189539 0.227353 -0.067331 0.110570 -0.182430 0.024883 -0.221315 -0.067169 -0.156538 0.036289 0.097794 -0.033450 -0.244092 0.215451 -0.008140 -0.203442 -0.390724 -0.348955 -0.088871 -0.049130 -0.197661 -0.014886 0.026611 0.027562 -0.274431 -0.104304 -0.181871 0.453419 0.172215 -0.113447 0.056059 0.350185 0.424895 -0.163519 0.312912 0.179579 -0.050867 0.354831 0.159738 0.015313 0.054652 -0.071209 -0.272315 0.161123 -0.345174 0.088914 -0.136825 -0.200308 -0.158502 -0.111520 0.054413 0.145695 -0.183827 -0.099954 -0.043683 0.232587 -0.587690 0.377623 -0.148417 -0.343722 0.141383 0.275867 0.029783 -0.169233 0.281991 0.496225 -0.070615 0.104130 -0.316323 -0.030213
注重细节 -0.223412 -0.269450 -0.110249 0.262210 0.079801 0.192350 -0.383864 0.485975 0.066392 0.260946 0.085327 0.058972 0.174510 0.000249 -0.115604 0.186130 -0.134776 -0.016069 0.581740 0.200831 0.423260 0.160138 0.051883 -0.030350 0.138367 -0.153061 -0.154739 0.297014 0.569337 0.195952 0.040652 -0.143915 0.048996 0.137107 -0.212987 -0.109569 0.109830 0.219976 0.088629 0.391684 -0.034235 -0.306152 0.292003 0.030582 -0.194264 0.131041 -0.268105 -0.177429 -0.282077 -0.195060 -0.171230 -0.068636 -0.165577 -0.019909 0.105365 -0.056560 -0.210461 -0.039259 0.169275 0.043125 -0.026123 -0.022172 0.068878 -0.405091 -0.192241 0.074968 -0.328264 0.227448 -0.476563 -0.165585 -0.199352 0.113643 0.233970 -0.122460 0.157030 0.817069 0.247380 -0.217996 0.112950 -0.031598 -0.178737 0.266389 -0.137340 0.720297 0.258323 -0.555589 -0.110428 0.618741 -0.371955 -0.033752 -0.095453 -0.317224 0.070523 -0.317976 0.146058 -0.111421 0.440062 0.182880 -0.539169 0.238199 -0.158247 0.280280 -0.030208 0.001004 0.131499 0.337560 0.313068 -0.343841 -0.117027 0.012377 0.167027 -0.170922 0.333315 -0.339949 0.133412 0.120754 -0.042179 -0.320143 0.220265 -0.913663 0.044711 -0.262785 0.530520 0.329825 0.332134 -0.187765 0.398214 -0.150953 0.340505 0.079055 -0.075265 0.193098 -0.261797 -0.037539 -0.476736 -0.094757 0.100784 -0.216963 -0.438125 0.069604 0.007946 -0.310629 -0.441786 0.103697 -0.124916 -0.050914 0.464668 0.051756 -0.065510 0.258619 0.086551 -0.160527 -0.282779 0.123838 0.023143 -0.026921 0.204118 0.316752 -0.003610 0.069107 0.509326 -0.347166 -0.226507 0.589987 0.398721 -0.364443 -0.594872 0.128903 0.250173 0.031341 0.352504 -0.276003 -0.074067 -0.050852 -0.499316 0.106809 0.029464 -0.003605 -0.386652 -0.338395 0.021086 -0.325369 -0.220924 -0.030839 -0.272673 -0.251133 0.153506 0.361918 -0.266606 -0.116220 0.297253 -0.099330 0.157372 -0.068702 -0.010952 0.393536 -0.009488 -0.202262 0.102366 -0.034590
多沟通 -0.135737 -0.201884 -0.294749 0.194398 0.006472 0.068398 -0.076069 0.230350 0.030375 0.115397 -0.038507 -0.021563 0.610201 -0.462630 0.042500 0.093412 -0.225448 -0.232274 0.590100 -0.095388 0.577556 0.035892 0.209765 0.508212 0.248524 0.692870 -0.126597 -0.266231 0.505402 0.211529 0.209025 -0.089206 0.167240 0.268499 -0.048634 0.017183 -0.150635 0.110520 -0.030704 0.022417 -0.445021 -0.274468 0.322354 0.118194 -0.045102 0.050473 -0.295710 -0.255263 -0.118587 0.302940 0.125724 -0.499148 -0.227676 0.441810 0.645945 0.341534 -0.467929 -0.177115 0.114793 -0.427652 0.177013 0.096612 0.373334 -0.172842 -0.040989 0.414006 -0.085752 0.380760 0.090332 0.009195 -0.544280 0.336643 0.247245 -0.344950 0.111464 0.029520 0.345250 -0.116649 0.470640 0.066110 -0.057112 0.035638 -0.103025 0.716665 0.259579 -0.447244 0.244742 0.201900 0.328744 0.312883 0.261762 -0.231490 -0.090637 0.133117 -0.094322 -0.017361 0.122164 0.356053 -0.027620 -0.045836 0.127191 0.187169 0.126974 -0.272948 -0.339411 0.076625 0.022726 -1.000059 -0.076341 0.437237 -0.094000 0.005020 0.198311 -0.233209 0.260237 0.169617 -0.044757 0.035574 -0.177946 -0.388500 -0.061393 -0.053258 -0.013323 0.292868 0.116948 0.010300 0.048407 -0.300464 0.092595 -0.337500 -0.221995 0.331875 -0.179109 0.095310 -0.175003 0.356721 -0.235894 0.230850 -0.052763 0.502735 -0.324855 -0.652738 -0.118338 -0.499610 -0.266442 -0.204179 0.166055 -0.140275 -0.047436 0.223896 -0.153084 0.294436 -0.341184 0.022995 -0.105056 0.108876 0.207198 0.117202 0.371209 -0.002715 0.099894 -0.189243 0.204497 0.469284 0.278248 -0.253185 -0.607965 0.474016 0.471590 -0.720203 -0.076367 0.047179 -0.191072 0.236525 -0.271266 0.125083 -0.020521 -0.287368 -0.064659 -0.184925 0.169079 -0.246885 -0.418620 -0.097235 0.117591 -0.023968 -0.062325 0.312972 -0.482669 -0.111605 0.174542 -0.382520 -0.159822 -0.217595 0.443934 0.238332 -0.070620 -0.005116 -0.083732 -0.239822
敲诈勒索 0.209043 -0.353940 0.367083 -0.089339 0.117999 0.295522 -0.000084 0.394509 -0.149578 -0.078728 -0.338635 -0.225373 0.360259 -0.372878 -0.026882 -0.567557 -0.065227 -0.342639 0.564225 -0.207033 -0.418518 0.505933 -0.725214 0.302084 0.296757 0.192930 -0.035158 -0.298195 0.643869 0.365089 0.268047 0.633252 0.051023 0.210936 -0.227909 -0.029113 -0.204962 -0.016389 0.163868 -0.013773 0.549627 0.162957 0.347787 0.138042 -0.130824 0.045309 -0.514292 -0.042011 0.106828 -0.083384 -0.360136 0.094747 -0.567075 0.114023 -0.132314 0.225240 0.151189 -0.333112 0.133440 0.206063 -0.018347 0.658088 0.235666 0.042762 -0.276374 -0.644645 -0.726436 0.467424 -0.067704 -0.000813 -0.557406 0.377431 0.196400 0.527581 0.558215 -0.388216 0.069374 0.178338 -0.021519 0.171543 -0.086498 0.195850 -0.280471 0.076611 0.410711 -0.179811 0.224743 0.273550 -0.113273 -0.332099 0.202991 0.324136 0.263370 0.008250 -0.105598 -0.321811 0.096210 0.379802 -0.229637 -0.398606 0.071361 -0.286469 -0.458414 -0.118016 -0.275726 0.478411 0.352219 -0.196230 -0.258345 0.124057 0.129990 0.654671 0.051790 0.102855 -0.345848 -0.017971 0.302063 -0.143257 0.176056 -0.579425 0.335860 -0.585795 -0.149269 -0.223607 -0.242381 -0.193408 -0.301987 0.104018 0.218671 -0.393961 -0.393042 -0.455175 0.179202 -0.397059 0.132637 0.123597 -0.257228 -0.255987 -0.072952 -0.113141 -0.535939 -0.466426 -0.636062 -0.327000 0.314701 -0.057936 -0.291295 0.171996 -0.219534 -0.000112 0.135275 0.035726 -0.097706 0.127430 -0.521445 0.046979 0.290247 0.119016 0.571105 -0.398321 0.161539 0.493871 -0.303480 0.002760 0.097011 -0.561599 0.281750 0.300660 0.142734 -0.053943 0.224609 -0.169566 -0.193621 -0.096856 0.129165 -0.414736 -0.248892 -0.138703 0.332774 -0.298439 0.271385 0.090338 -0.017135 0.495593 0.287952 0.564707 0.188147 0.392392 0.534078 0.150086 0.156108 0.140818 0.107573 -0.050866 -0.094143 0.031576 -0.370768 0.202802 -0.285889 0.144195
玩的开心 -0.044077 -0.303368 -0.093388 -0.109621 0.440265 0.208886 0.183708 0.197581 0.281820 0.203146 0.130822 0.164115 -0.082358 -0.367486 0.439129 -0.157930 -0.243958 -0.360675 0.194352 0.037513 0.527657 0.025996 0.000497 0.537308 0.325190 -0.152949 0.001892 -0.025806 0.518867 -0.149828 -0.043621 -0.777669 0.229607 0.381802 -0.012298 -0.074959 0.354044 0.171775 -0.224045 -0.237768 0.162559 -0.137353 0.492289 0.020186 0.238051 -0.477959 0.166674 0.011021 0.064867 -0.086549 -0.411344 -0.197956 -0.229165 -0.030028 0.479134 0.347350 -0.122686 -0.250332 0.047979 0.120280 -0.304450 -0.171218 0.061286 -0.099604 -0.170327 0.071569 0.096439 0.414785 0.088526 0.019032 -0.369314 0.117893 0.023107 -0.190387 0.123045 0.049932 0.025707 -0.127105 0.041383 0.040589 0.451914 0.156465 -0.442323 0.283520 0.241130 -0.080403 0.179721 0.408068 0.136149 -0.122363 0.610168 -0.040234 -0.031296 0.077781 -0.156497 -0.455794 -0.069920 0.035746 -0.018148 0.240378 0.179222 0.134561 0.332282 -0.178013 -0.378985 -0.098479 0.226242 -0.426292 0.217941 -0.078560 0.233520 0.007786 -0.464525 0.008664 -0.054028 0.065138 0.240563 -0.395594 -0.199564 -0.476230 0.234049 0.093815 0.253987 0.067343 0.243439 0.019042 0.009269 -0.038514 0.089140 0.110675 0.069118 0.292270 -0.152456 0.354430 -0.440915 0.346647 -0.060373 -0.072055 -0.043944 0.104705 -0.038865 -0.208392 -0.442720 -0.167349 0.264207 -0.419456 -0.304311 0.165509 -0.182794 0.165249 -0.264722 0.019980 -0.438076 -0.119222 -0.348508 0.146622 0.230368 -0.390771 0.298052 -0.250245 -0.253778 -0.050042 0.088425 0.342994 0.293611 0.383070 -0.053091 0.262762 0.025513 -0.183796 0.642497 -0.099210 -0.120600 0.333921 -0.240824 -0.667342 -0.029728 -0.348878 -0.175861 -0.042601 0.197343 -0.042028 -0.698213 -0.428902 -0.062800 0.125527 -0.306322 0.297786 -0.602863 -0.032608 0.161474 0.131992 0.040618 -0.310211 -0.090769 0.818775 0.431698 0.391245 -0.026328 -0.089555
定点医疗机构 0.406570 -0.431633 0.002947 0.105802 -0.260460 0.168764 -0.074603 -0.306208 -0.333431 -0.719058 -0.072699 0.136268 0.161205 -0.271832 -0.604986 -0.162463 -0.057732 -0.356538 -0.373524 0.170010 -0.444973 0.222871 -0.087450 0.778179 0.021086 1.141013 -0.152142 0.148214 -0.264979 1.009492 0.240093 -0.347975 0.397220 0.294871 -0.500670 0.233594 0.172674 0.136818 0.516878 -0.110115 0.079180 0.051652 0.446070 0.134342 -0.208289 -0.150399 -1.298690 -0.379672 0.111635 -0.418815 0.098004 -0.082638 0.030554 -0.210191 -0.427700 -0.467987 -0.155045 0.260821 -0.262952 0.420027 0.126794 0.513313 0.210465 0.067620 0.058091 -0.692621 0.281089 0.049343 0.383534 0.071179 -0.492765 0.467256 0.407127 0.285646 -0.479018 0.179159 0.780229 0.107351 -0.134190 -0.465740 -0.192290 0.130774 -0.461218 0.153284 -0.455419 -0.742014 0.447926 -0.222630 -0.462619 0.044268 1.202663 -0.153201 -0.094350 0.137337 -0.576222 -0.021788 -0.018104 -0.049391 0.431915 -0.050508 -0.377192 -0.393204 -0.018684 -0.566130 -0.312836 0.525263 -0.151115 -0.313550 -0.335034 0.319175 0.854649 0.324360 -0.222443 -0.012875 0.180597 0.318555 -0.206880 -0.455775 0.426450 -0.681234 -0.376238 -0.190883 0.514903 -0.226486 -0.547410 0.452192 -0.504861 0.604821 -0.173286 0.627465 0.113536 -0.008826 -0.543048 0.734639 -0.146388 0.116341 0.099118 -0.422106 -0.179737 -0.085048 -0.510075 -0.560542 -0.217137 -0.589546 0.040823 0.184122 0.109879 0.088980 0.128898 -0.132266 -0.867647 0.858184 -0.154195 0.419634 0.723136 1.069603 0.472323 -0.634461 0.051455 0.199494 0.911826 -0.031232 -0.569713 0.019650 0.232086 -0.427582 -0.223864 -0.021407 0.503186 -0.277970 -0.035313 -0.027502 -0.616729 0.675201 0.195855 0.056026 0.250582 0.354887 -0.285991 0.473135 0.176794 -0.099286 -0.677663 0.212869 -0.194739 0.266904 -0.215742 0.060744 0.096779 -0.379342 0.834151 -0.148658 0.675164 0.456390 0.500033 0.703856 -0.379193 -0.191272 -0.497518 0.615548
成风 0.168701 -0.223546 0.074879 0.215707 -0.069637 -0.229788 -0.041031 0.128239 0.130533 0.085093 0.216748 0.010469 0.066591 -0.299277 -0.267905 -0.286094 0.061651 -0.018430 0.226750 -0.340563 0.154144 0.297462 -0.491727 0.281426 -0.062102 0.154593 0.001777 0.075613 0.085314 -0.180235 -0.095706 0.257095 0.020183 -0.044975 -0.000553 -0.160043 0.304220 0.056094 -0.390636 0.184922 -0.190104 -0.103369 -0.136592 0.003866 -0.235505 0.103898 -0.142861 -0.055775 0.263120 0.013235 -0.267457 0.165494 0.048581 -0.446758 0.016628 0.018750 -0.015205 -0.004685 0.301822 0.177087 0.092766 0.378402 0.147895 -0.103292 0.099432 0.099010 -0.355424 0.188655 0.002707 -0.296558 -0.252112 0.417260 -0.285953 0.213837 0.138643 -0.072093 0.286130 0.430214 0.008373 -0.077467 0.219069 0.340058 -0.222045 0.356643 0.079943 -0.136223 -0.147694 0.160814 -0.051834 -0.611439 0.205352 -0.141330 0.391179 -0.148449 0.044952 -0.349295 0.133259 0.222734 -0.421948 -0.390053 -0.045951 0.350610 0.202135 -0.083935 -0.082757 0.293290 0.285634 -0.067061 -0.254366 -0.053957 -0.100494 -0.268459 -0.098399 0.366968 -0.161965 -0.151154 -0.288660 -0.386561 0.065989 -0.030493 0.452226 -0.210018 -0.548358 0.007375 0.259732 0.253074 -0.113674 0.006047 0.063726 -0.216748 -0.131471 -0.039886 0.021959 -0.013459 0.153661 0.011042 -0.229088 -0.292063 -0.164789 -0.297514 -0.517629 -0.405179 -0.076549 -0.375943 0.389153 0.135292 0.146255 0.065235 -0.227682 -0.031781 -0.298658 -0.044562 -0.127502 0.337733 -0.314247 -0.160626 0.188542 0.247425 0.185958 -0.051981 0.263669 -0.495176 -0.040164 0.150077 0.440120 -0.042538 0.084663 0.209689 -0.093369 0.244361 -0.416213 -0.140754 0.101433 0.097231 0.004494 -0.344916 0.131388 -0.199181 -0.164893 0.211660 0.385512 0.463131 0.139229 0.256991 0.236015 0.310271 -0.256093 0.575275 -0.092023 0.047532 0.177142 0.011195 0.145562 -0.199124 -0.086916 0.148875 -0.190949 -0.074415 -0.244142 -0.183141
突然袭击 0.532213 0.058365 0.354623 0.320204 -0.029316 0.276924 0.352030 -0.217957 0.120356 -0.349434 -0.269440 -0.596032 0.434534 -0.050884 0.694907 -0.127505 -0.331436 -0.436039 0.214973 -0.277686 0.077204 0.291636 -0.114014 0.098052 0.321554 0.201617 -0.024047 0.239765 0.477139 0.637402 0.403475 0.121564 0.299370 -0.049924 0.088480 0.113613 0.118249 0.294824 -0.277127 -0.106070 0.281418 0.104697 0.211305 -0.241941 -0.071825 -0.265852 -0.369621 -0.666723 0.475525 0.371087 -0.292855 -0.050613 -0.199896 -0.521482 0.162752 0.007752 -0.012600 0.304367 -0.167100 0.002974 0.250443 0.284055 0.158955 -0.229264 0.087331 -0.100499 -0.226664 0.228951 -0.171474 -0.139573 0.038762 0.158205 0.345196 0.406365 -0.107572 -0.095013 0.119194 0.002975 -0.024937 0.266438 0.081228 -0.037514 -0.229824 0.247224 0.493652 -0.259653 -0.147051 0.066904 -0.311892 -0.460649 -0.043303 0.122644 0.333834 0.126080 0.251669 0.030182 0.290991 0.277839 -0.496598 0.276150 0.172141 0.131829 -0.554549 0.146371 -0.254971 -0.301995 -0.112137 -0.224948 0.061459 -0.202748 -0.100099 0.378519 0.225710 0.028188 0.020585 0.099998 0.156330 -0.171097 -0.020291 -0.422406 -0.361965 -0.100618 -0.243637 0.324008 0.059959 -0.021547 -0.201544 0.024777 -0.067564 -0.179085 0.050838 0.097543 0.003301 -0.224242 -0.022100 -0.313352 -0.250759 -0.768930 -0.043637 0.078921 -0.250968 -0.358052 -0.330125 -0.088122 -0.159750 0.270573 -0.046161 -0.072139 0.129465 -0.056386 -0.094943 -0.175820 -0.171375 -0.077422 -0.397474 -0.125420 -0.245151 0.330390 0.475233 -0.154940 0.212243 0.373618 0.109795 0.172366 -0.212997 0.012536 0.185480 0.141215 -0.176694 -0.421047 0.178601 -0.081134 0.130389 -0.000369 0.007520 -0.871041 0.256972 -0.276624 -0.166062 -0.363236 0.227759 0.057681 -0.097952 0.371488 -0.065727 0.281559 -0.084547 0.149736 -0.021603 -0.238845 0.438271 -0.128051 0.150430 0.057597 -0.074193 0.149461 -0.180728 -0.189779 -0.175625 0.171576
客观地 0.380327 -0.052222 -0.381604 0.063212 0.500884 0.488446 -0.389755 0.183614 -0.032797 -0.050160 -0.121729 -0.364906 0.231872 -0.513329 -0.147123 -0.560588 -0.330578 0.208881 0.167635 -0.355014 0.049265 -0.270153 0.053515 -0.012444 -0.011549 0.494873 0.146997 0.254123 -0.209980 0.313354 -0.313665 -0.036751 0.095073 0.106895 -0.272942 0.043425 -0.180998 0.608961 -0.322106 0.016178 -0.296125 -0.183880 0.655586 0.441718 0.051140 -0.458022 -0.440443 -0.315450 -0.234420 -0.041819 0.259479 0.172440 0.041995 0.497216 0.148911 -0.065939 -0.143461 0.077997 0.232182 0.191699 0.487546 0.375653 0.438745 0.114463 -0.092561 -0.028876 -0.511133 0.007439 -0.168089 0.206002 -0.174045 0.730285 0.209424 -0.272157 -0.215915 0.607088 0.094276 -0.190521 0.436197 0.083185 0.268204 -0.325702 0.357389 0.224670 0.595196 -0.429872 -0.021202 0.178471 -0.217599 -0.356642 -0.134596 -0.359241 -0.439065 0.193847 -0.017292 0.167410 0.111590 -0.472949 -0.203243 -0.357403 -0.061565 -0.127998 -0.185083 -0.252684 -0.127453 0.490046 -0.371390 -0.300912 -0.248282 -0.120596 -0.305895 -0.344665 0.351288 -0.385995 0.224743 -0.216221 0.222912 -0.107969 0.322262 -0.305467 0.161297 -0.201224 0.026223 0.492154 0.456991 0.260972 -0.069528 -0.408258 -0.066216 0.345421 -0.375386 -0.036781 -0.203489 -0.095068 -0.667459 0.031949 0.009765 -0.121856 -0.383870 0.089528 -0.664141 -0.088814 -0.517832 0.030414 -0.106549 0.342986 0.567989 -0.001024 0.243021 0.159924 0.029299 0.285304 0.059510 0.079528 0.137613 0.351345 -0.063245 0.287132 0.200762 -0.092620 0.142937 -0.384262 0.272108 0.032239 0.693645 -0.119917 -0.531608 -0.025247 -0.037922 -0.078445 0.094960 -0.244695 0.138095 0.097493 -0.469771 0.259175 -0.504468 -0.092785 -0.023468 0.452103 0.347387 0.081938 -0.465347 0.395500 -0.192622 -0.254499 -0.429536 0.495489 -0.115616 0.234478 0.606546 0.087450 0.382337 -0.075058 0.094317 -0.062533 -0.534806 -0.508569 0.130807 0.046474
最传统 0.140777 0.121532 0.350539 0.155216 0.458540 0.250526 0.302943 0.103707 -0.087483 0.379261 0.034492 0.340919 0.048671 0.328440 0.229659 0.137308 0.003185 -0.224371 0.400218 -0.332983 -0.261645 0.061894 0.138169 0.118044 0.157219 0.131906 0.011285 0.010092 0.232834 -0.198598 0.067638 0.226941 -0.165288 -0.238020 0.207208 -0.409054 0.269507 0.387972 -0.285694 -0.070961 -0.019775 -0.177741 -0.286083 -0.044909 -0.008774 -0.306584 -0.086551 -0.200641 -0.495151 -0.164656 -0.110487 0.288490 -0.585504 0.213381 0.092506 -0.166116 -0.320132 -0.038824 0.031204 0.063209 -0.051866 0.096932 0.096282 -0.190249 0.138879 0.068916 -0.032444 0.485676 0.281543 -0.097706 0.118246 0.326111 -0.061413 0.392273 -0.264152 0.126749 0.200951 0.012578 0.041014 -0.211113 0.690759 0.310307 0.182611 0.699746 0.078556 -0.573728 -0.317808 0.115430 0.009723 -0.151211 0.242829 0.052133 -0.019878 -0.458861 0.446283 -0.345401 -0.074154 -0.194746 -0.292207 -0.216072 -0.090026 0.305589 -0.013779 0.336802 -0.557606 0.281560 0.458593 -0.272466 -0.116129 0.039532 0.167584 -0.046109 -0.057219 -0.056397 -0.075470 -0.477503 0.137408 0.009512 -0.029780 0.064344 0.120037 -0.458427 -0.406893 -0.107609 -0.183815 0.369740 0.330386 -0.029399 -0.393929 0.091114 0.158144 0.118818 -0.295157 0.101248 0.084441 0.094097 0.181593 -0.326601 -0.389119 -0.033719 -0.329514 -0.566295 -0.286490 -0.524021 -0.197007 0.357200 0.104541 -0.149411 -0.268821 -0.350794 -0.005192 0.048475 -0.323220 0.147924 -0.211856 0.487684 0.361532 0.362668 -0.107661 -0.207075 0.569985 -0.193933 -0.279434 0.234933 0.052926 0.170186 -0.606687 -0.522649 -0.293926 -0.216942 0.120314 0.141038 0.197158 0.077098 -0.324348 -0.039669 0.207447 0.497514 -0.341395 -0.250196 -0.261217 0.004429 0.154316 0.215697 0.127409 0.004953 -0.278459 -0.086674 0.372758 -0.181744 0.027060 0.442824 0.119886 -0.188781 0.349494 0.340048 -0.229265 -0.002784 -0.221443 0.060130
半程马拉松 0.197300 -0.626279 0.572691 0.225335 0.135042 0.115199 -0.251824 0.283506 0.322022 0.242099 0.606211 -0.123803 -0.167373 0.244088 0.303545 -0.314222 -0.531929 -0.133810 -0.161882 0.523717 -0.268853 0.333079 0.408444 0.208467 0.095368 -0.178021 0.384195 0.000770 -0.061150 0.310892 -0.230090 -0.647241 0.153172 0.490370 -0.656374 0.327276 0.325296 0.365790 0.265978 -0.303730 0.225717 -0.014124 0.314489 -0.210894 0.026722 -0.785387 -0.216450 -0.519712 0.155349 -0.271543 -0.026301 -0.170179 -0.672806 0.078755 0.148124 -0.308830 0.190270 0.221438 -0.346195 0.026758 0.458054 0.323468 0.473209 0.133451 -0.821419 -0.303659 0.998650 0.054368 -0.139653 0.097430 -0.110502 -0.218045 0.088177 -0.087671 -0.301032 0.074602 0.245435 -0.346238 -0.103620 0.493714 0.583032 -0.422122 0.172354 0.138338 -0.102814 -0.348537 0.084901 0.072680 -0.203380 -0.118970 -0.684446 -0.015934 -0.144255 -0.176797 -0.247521 -0.362874 0.329059 -0.156916 -0.082365 0.180195 -0.511926 0.589500 0.102592 0.024416 0.059636 0.286297 0.033071 -0.399489 0.258159 -0.063173 -0.492474 0.039367 -0.876803 0.259778 -0.366278 -0.198961 0.021105 -0.206847 -0.027340 -0.843208 -0.551752 -0.467210 -0.254372 0.108395 -0.192459 0.544008 0.354602 0.451354 0.368925 0.035255 0.599563 -0.115536 -0.172783 0.457840 -0.445362 0.017068 -0.625914 0.224940 -0.026802 -0.210460 -0.223301 -0.419078 -0.735809 0.058639 0.569464 0.112708 -0.193527 0.229477 0.390364 -0.136382 -0.215753 0.235492 -0.084007 -0.392535 0.334352 0.403161 0.441125 0.371634 0.815784 -0.197604 0.533119 0.628942 0.409107 0.405201 0.167003 0.159095 0.263242 0.168402 0.322577 0.044305 0.319962 -0.362449 -0.156989 0.479138 -0.074304 -0.164918 0.425452 -0.168788 -0.264322 -0.020060 -0.958243 -0.228383 -0.193300 -0.250219 0.062113 0.125346 0.165391 0.555443 0.404780 -0.062450 -0.036367 0.519874 0.072491 -0.223771 -0.183935 0.676875 -0.047273 -0.132649 0.018803 0.672309
能干什么 0.368465 -0.234352 0.201692 -0.476306 -0.020820 -0.215887 0.108922 0.093092 0.324793 0.261241 -0.397718 -0.309134 0.168956 0.152623 -0.215053 -0.226425 -0.076298 -0.302281 -0.243545 -0.343463 -0.270921 0.258302 -0.216159 0.289181 -0.062361 -0.205234 -0.477025 0.052379 0.229095 -0.217234 0.211714 -0.018851 -0.095419 0.397162 -0.236206 -0.159206 0.214400 0.185562 -0.064386 -0.247860 -0.048108 0.137220 0.049128 -0.227372 -0.452876 0.118278 -0.171075 -0.000321 0.250008 -0.217304 -0.256570 -0.279831 -0.332721 0.170363 0.178432 0.153085 -0.049080 -0.095592 0.387754 0.186717 0.097004 0.017636 -0.005633 -0.025451 -0.251397 -0.094452 0.151536 0.111805 0.011730 -0.164208 -0.253118 0.186435 0.452907 -0.169029 0.122261 -0.080180 -0.144815 0.199678 -0.066787 0.398484 0.424502 0.096770 -0.238353 0.099268 0.488534 0.108369 0.226956 0.648761 -0.184558 -0.776603 0.104492 0.280906 0.136948 0.141413 -0.219511 0.095944 0.277077 0.202741 0.132358 -0.124803 0.035897 -0.249312 -0.099672 0.167287 -0.053900 -0.388471 -0.115421 -0.448326 -0.211495 -0.159416 0.175381 0.040767 -0.228080 -0.554190 -0.081244 0.042248 0.170707 -0.059750 -0.067358 0.027095 0.517507 -0.694171 -0.083773 -0.030138 -0.039727 0.146004 -0.271701 -0.199106 -0.156215 -0.110039 0.260324 0.099555 0.197102 -0.068243 -0.063971 -0.022726 -0.485354 -0.014856 -0.226633 0.248969 -0.115200 -0.475622 0.194579 -0.226930 0.077501 0.139758 -0.344667 0.385123 0.122697 0.174413 -0.362663 0.241566 0.061743 -0.156171 -0.313410 0.400200 0.141832 0.315728 0.124864 -0.345837 0.058193 -0.225751 0.020619 -0.139603 0.346329 0.292917 0.098545 -0.018016 0.337851 -0.500190 0.228405 -0.203985 -0.284879 -0.167886 0.081162 -0.221095 -0.434172 0.292603 0.079521 -0.192712 0.341573 -0.312916 0.043263 -0.007871 -0.138519 0.083952 -0.491278 0.486045 -0.001074 -0.281120 -0.016125 0.181003 -0.056781 -0.018698 0.069811 0.553919 -0.135715 0.094375 -0.221684 0.522530
协力 0.301907 -0.112301 -0.164112 0.326741 0.053195 0.066981 0.217999 0.250744 0.368392 0.074951 0.380727 -0.391527 0.360579 -0.233748 0.087714 -0.287958 -0.024895 0.162176 -0.083333 -0.041403 0.112035 0.177044 -0.061616 0.009725 0.273760 0.131926 0.102305 -0.094824 -0.080266 0.440104 0.316228 -0.038890 -0.138797 0.033526 -0.403569 0.072541 0.261869 -0.317382 -0.460675 -0.237200 0.015980 -0.222258 0.259783 0.057395 -0.306724 -0.003390 -0.234266 -0.421168 -0.280373 -0.102550 -0.360932 -0.029045 -0.063930 -0.240211 -0.284336 -0.276600 -0.277335 -0.137648 0.107648 -0.184123 0.191012 0.044104 0.211143 -0.176750 -0.276869 0.247611 -0.362480 0.450841 -0.327331 0.051444 -0.126349 -0.292802 0.551472 -0.091887 0.045190 -0.152219 0.282059 0.261822 0.306112 0.115249 0.171779 -0.215519 0.266217 0.472205 0.218896 0.131516 -0.037619 0.020182 -0.110354 -0.009566 -0.157213 -0.445081 0.235543 -0.040160 -0.052809 -0.197677 0.138837 0.187928 -0.475605 -0.080489 0.337424 -0.025257 0.121989 0.036482 -0.053450 0.541746 0.293311 -0.120974 0.052660 -0.088218 0.212586 -0.097708 -0.246274 0.069196 0.011692 -0.363917 -0.231660 -0.065400 -0.174196 -0.285555 0.325962 -0.112126 -0.019840 0.188913 0.031471 0.340926 -0.270850 -0.226076 -0.196405 -0.091773 0.178426 0.136675 -0.023771 0.072286 -0.102895 -0.365381 -0.087944 0.025447 0.117823 0.293770 -0.418652 -0.878310 -0.205323 -0.466477 0.201470 0.177056 0.059702 0.129778 -0.340390 -0.091212 -0.168057 0.123265 -0.247537 0.021355 -0.163352 -0.132005 0.260545 -0.220096 0.122748 0.215005 0.170964 0.156508 0.773310 0.252256 0.127211 0.002915 -0.314096 0.432875 0.233247 -0.666933 0.241493 0.052592 -0.443853 0.051993 -0.557207 -0.443147 0.225682 0.274227 -0.298567 0.071070 0.023668 0.273589 -0.110759 0.570189 0.089862 0.260094 0.247561 0.084811 -0.545314 0.283664 0.336026 0.061963 0.073007 -0.099861 0.274795 0.495581 -0.086753 0.349072 -0.008824 -0.252254
要接 0.369291 0.009230 -0.197270 0.113229 0.174028 -0.524418 0.153200 -0.124309 0.017223 0.034837 -0.309749 0.118146 0.533730 -0.201722 0.087364 0.093910 -0.201520 -0.113130 0.069162 -0.030042 0.008781 0.512361 -0.167706 0.259265 0.433070 -0.338461 -0.316247 0.301520 0.327277 -0.050303 0.007880 0.373920 0.056494 -0.119026 -0.141519 -0.062040 0.381505 0.116404 -0.625955 0.090491 0.126528 -0.099661 0.198136 0.032675 0.170101 -0.229392 -0.295579 -0.495915 0.053438 0.285499 -0.161152 0.099395 0.026155 -0.138844 0.128364 0.037010 0.054542 -0.261222 0.034142 -0.121193 -0.317393 -0.100187 -0.093781 0.233106 -0.039725 0.285641 0.346996 0.248189 -0.006685 -0.380491 -0.317150 -0.109704 0.312546 0.116753 -0.090575 -0.115485 0.058359 -0.157099 -0.150458 0.317872 -0.120569 0.086150 -0.004580 0.408530 -0.115827 -0.070569 -0.069281 0.317519 -0.277547 -0.109346 -0.087444 -0.021805 -0.098138 -0.088009 0.156900 -0.126408 0.182878 0.267835 -0.236237 -0.474481 0.098944 0.320502 -0.310861 0.485324 -0.238634 0.103046 0.127492 -0.359104 0.175215 -0.197670 0.173390 -0.192810 0.006472 -0.216606 0.076519 -0.132535 0.241293 -0.191823 0.255987 -0.343627 0.023510 0.199706 -0.115003 0.248542 -0.145829 -0.008580 -0.575292 -0.259081 -0.459194 0.085152 -0.332017 -0.084729 0.228365 0.281018 -0.123151 -0.073549 -0.115017 -0.016018 -0.262974 0.061018 -0.030065 0.141735 -0.480404 -0.218555 -0.052014 -0.283878 0.026376 -0.202080 -0.397634 0.110663 -0.417901 0.289993 -0.041188 0.192269 -0.169401 0.220949 0.327679 0.170883 0.289853 -0.327072 -0.044775 0.060073 0.174398 -0.052620 0.245776 0.063833 0.047696 0.126168 0.809904 -0.410973 -0.037174 0.028088 0.098192 0.071778 -0.008899 -0.210904 0.312923 0.184267 0.083061 0.155664 0.397361 -0.200627 -0.120206 -0.313918 0.114520 -0.096685 -0.472594 0.363015 0.027745 -0.554951 -0.187901 0.132089 -0.121789 -0.022622 0.153127 0.642094 -0.097654 0.134588 -0.043549 0.138218
优雅气质 -0.208699 -0.129019 0.111101 0.104222 0.109964 0.102186 0.030007 -0.039276 0.494081 0.418868 0.127278 0.462121 0.095584 0.080633 0.111358 0.043348 0.015508 0.109948 0.553779 -0.409255 -0.012849 -0.059866 0.215986 0.117713 0.193309 -0.272484 0.206690 0.167511 -0.031520 -0.180338 0.081706 -0.163925 0.120261 0.098359 -0.357763 0.058125 0.361392 -0.139970 -0.139816 -0.164313 0.145646 -0.325607 0.658989 -0.537578 0.541867 0.094784 -0.517120 -0.469775 -0.481577 -0.136580 -0.459232 -0.064153 -0.344153 -0.019923 0.113245 -0.256075 -0.640241 0.271183 -0.299122 0.320264 -0.166174 0.189676 -0.114446 -0.309862 0.069513 -0.421410 0.161382 -0.113079 0.163571 0.177349 0.123623 0.053432 0.001134 0.510542 0.364797 0.468683 0.217794 -0.077864 -0.153890 0.283505 0.303389 0.050901 -0.190387 0.856705 0.539953 -0.209457 -0.116935 0.300777 0.011297 -0.438562 0.867667 0.008569 -0.681461 -0.633083 0.452227 -0.123746 0.110355 0.868215 -0.245329 -0.166326 -0.199170 0.019498 0.101093 -0.095655 0.344969 0.597991 0.220055 -0.133757 0.034585 0.000490 -0.304385 -0.133155 -0.142461 -0.087883 0.255164 0.263269 -0.053674 -0.239645 0.779604 -0.475717 0.160219 0.118148 0.197142 0.174697 0.590302 0.462946 0.731899 -0.133410 0.145541 -0.223133 0.252512 0.109749 -0.164569 -0.229005 -0.007660 -0.106847 -0.549656 -0.383820 -0.330394 0.125114 -0.067853 0.230479 -0.385468 -0.202758 0.034736 -0.122925 0.316819 -0.068548 0.058954 -0.331333 -0.191259 -0.532166 -0.051998 -0.365049 -0.228546 0.216733 -0.290089 0.358791 -0.500350 -0.268355 0.956370 -0.043954 -0.009970 0.180288 0.061871 -0.106652 -0.526198 0.025297 0.002452 0.358096 -0.029789 -0.184194 -0.493856 -0.162563 -0.463478 0.146486 0.314089 0.047795 -0.318280 -0.131532 -0.156093 -0.106376 -0.240410 -0.022290 -0.509006 -0.177365 -0.550809 0.354921 -0.307249 -0.023895 0.412377 0.038612 -0.290518 0.142601 -0.097422 0.408749 0.034571 -0.362708 -0.041000 0.088973
我头 0.334296 -0.540171 0.542762 -0.033852 -0.027044 -0.388131 0.118440 -0.158850 0.510222 0.049559 -0.314820 0.065365 0.448602 0.067771 0.111797 0.030516 -0.713223 -0.231339 -0.131923 -0.310306 -0.152181 0.240088 0.009143 0.389901 0.251083 -0.093168 -0.223283 0.265131 0.190292 0.016640 -0.225154 -0.286851 -0.008904 -0.115650 -0.248034 -0.280765 -0.194237 0.138569 0.068495 0.100451 0.565067 -0.066389 -0.046413 -0.171380 0.499095 -0.292039 -0.225873 -0.074180 0.328151 0.304852 -0.102873 0.261171 0.224136 0.237637 0.513554 0.284828 0.615984 0.338928 0.312240 -0.059678 -0.066694 -0.050672 0.031247 -0.136909 0.187487 0.378780 -0.058558 0.320237 0.176044 -0.153069 -0.336864 0.050925 0.171097 0.046697 0.046498 0.231721 0.203590 -0.068576 -0.018683 0.114543 0.200900 0.408565 -0.476279 -0.123007 0.068967 -0.130035 -0.016292 0.601022 -0.014956 -0.283885 0.072134 0.020142 0.107387 -0.010516 -0.230294 -0.103896 -0.107216 -0.209223 0.021209 -0.191363 -0.114649 0.436324 -0.543631 0.395145 -0.219691 -0.101040 0.357013 -0.560021 0.197127 -0.175497 0.182657 0.047350 0.157483 -0.360027 0.246032 -0.148564 0.349854 -0.135449 0.320775 -0.276712 0.318770 -0.323453 -0.203865 -0.188330 0.222816 0.068195 0.037871 -0.043057 0.008852 0.540721 0.243024 0.150958 -0.185898 -0.027185 -0.108761 -0.165980 -0.229914 -0.301542 -0.051370 0.109705 0.016110 -0.116724 -0.046881 0.104712 -0.249461 -0.428461 -0.039474 -0.316039 0.207113 0.164616 -0.201626 -0.162823 0.012529 0.036229 -0.326815 0.090963 -0.253926 -0.200258 0.335832 -0.414448 0.036773 0.240337 0.419249 0.032606 -0.020254 0.438204 -0.226115 0.218727 0.430159 -0.107964 -0.068800 0.031082 0.021018 -0.172250 -0.009230 0.110805 -0.376679 -0.369224 -0.130206 -0.023427 -0.093999 -0.217043 0.002230 0.078694 -0.180253 -0.181629 -0.343784 0.537510 0.230077 -0.008988 0.322101 0.127640 0.010288 -0.137003 0.090648 0.396859 -0.091302 -0.084797 0.170461 0.118338
多多支持 -0.172935 0.074536 -0.254538 0.665860 0.349613 0.165519 0.292663 0.144934 0.146040 0.168479 0.086637 0.340559 -0.223393 -0.524339 0.136564 -0.432346 -0.539341 0.066741 -0.111161 -0.274238 -0.089917 0.230289 0.064729 0.121864 0.373674 -0.609133 0.176250 -0.037227 0.139684 0.047699 0.451205 0.069088 0.014421 0.472437 0.228541 -0.095748 0.178113 -0.454022 -0.259064 -0.195417 -0.409808 -0.287162 0.467380 0.267635 -0.239300 -0.133397 -0.070247 -0.115403 -0.268422 -0.408870 -0.242001 0.126314 -0.203587 0.258466 0.648960 0.720574 0.013464 -0.310706 -0.150298 -0.366766 0.457306 0.099142 0.001908 0.033339 -0.073106 0.295445 0.010288 0.562205 0.092218 0.237268 -0.540559 0.056889 -0.298379 0.044173 -0.172615 0.512294 -0.109848 -0.087069 -0.255791 0.074754 0.196461 -0.146131 -0.451245 0.253287 0.137696 -0.107755 -0.244813 0.524316 -0.538098 -0.419362 0.097852 -0.158597 0.247218 0.198850 -0.116727 -0.035122 -0.153573 -0.004870 0.842947 -0.237121 0.551096 -0.110250 -0.252321 -0.133912 -0.248951 -0.027895 0.356911 0.212403 -0.256800 -0.179463 0.147572 -0.229703 -0.173526 0.069929 -0.397571 0.276720 0.431371 -0.010923 -0.205520 -0.816570 0.071770 -0.030014 0.222626 -0.272524 0.584228 -0.053257 -0.414555 -0.457150 0.670665 -0.141616 0.536662 0.646387 0.133369 -0.245069 -0.395656 0.173120 -0.172089 -0.422316 0.321134 0.452481 -0.554134 -0.288274 0.064485 -0.622530 0.207730 -0.165888 -0.016137 -0.373521 -0.315038 -0.092766 -0.376076 -0.131361 -0.053292 0.022695 0.085325 0.321614 0.538127 -0.678917 0.722861 -0.275583 0.107844 -0.348273 0.796958 0.236905 0.238076 0.105518 -0.136100 0.155610 0.295546 -0.446965 0.615555 0.133516 -0.385662 0.702234 -0.509480 -0.342606 -0.174656 -0.457256 -0.494354 0.167179 0.484827 0.139545 -0.337828 0.422752 -0.395055 -0.093227 -0.601601 0.845866 -0.246541 -0.403140 0.136252 0.378123 0.197067 0.069383 0.169735 0.766766 0.498152 0.069057 -0.286081 0.059325
只是有点 0.042412 -0.313218 -0.020740 0.208597 0.390577 -0.042346 -0.000838 -0.374559 0.489666 0.299599 -0.067375 0.177888 0.453950 -0.100423 0.185730 -0.009426 -0.125953 -0.292972 0.006753 -0.009471 -0.054039 0.342737 -0.093336 0.122131 -0.154829 0.205064 0.009256 0.257387 0.338395 0.360856 0.216229 -0.397139 0.121425 -0.096630 -0.187504 -0.325190 0.049596 0.031290 -0.071909 0.300116 0.272067 0.193794 0.097987 -0.042280 0.227613 -0.124854 0.059781 -0.191304 0.114126 0.142419 -0.041212 0.358216 -0.100190 0.101342 0.242178 0.264905 -0.023004 -0.005925 0.175872 0.068380 0.142638 0.122481 0.148838 -0.240972 -0.133778 0.069989 -0.299600 0.171713 0.304946 -0.078715 -0.507193 0.337878 0.167292 -0.188117 0.055574 0.357814 0.170143 -0.212696 -0.276589 0.536871 -0.122792 -0.119490 -0.334817 0.049841 -0.301506 -0.198364 0.416293 0.393703 -0.179788 -0.451071 0.393694 0.171523 -0.028323 -0.060867 -0.147493 0.202267 0.187377 -0.201376 -0.187410 0.036909 0.090736 0.192860 0.212737 0.451492 -0.161483 -0.407568 0.061990 -0.348654 0.222569 -0.032471 0.163753 -0.058372 0.071797 -0.086658 -0.141272 -0.061885 -0.164440 -0.079957 -0.225228 -0.062900 0.434783 -0.304457 -0.356658 0.294991 0.374123 0.194593 0.200867 0.172648 -0.045270 -0.104063 0.127306 0.176628 -0.044019 0.091046 -0.146598 -0.195303 -0.145976 0.260846 0.124325 -0.039567 -0.442052 -0.314025 -0.154213 0.439043 -0.181611 -0.201851 -0.083586 0.029687 -0.243018 0.270565 -0.072398 0.012326 -0.384571 0.076742 -0.197559 0.138988 0.051502 -0.058695 0.497790 -0.292136 0.483819 -0.207611 -0.041881 -0.064647 0.300236 0.259937 -0.197013 0.211806 -0.205936 -0.235602 0.014926 -0.183950 0.062502 0.525198 0.138115 -0.330312 -0.120421 -0.419216 -0.240356 0.020070 0.162846 -0.141103 -0.069085 0.085782 -0.236951 -0.152022 -0.161745 0.414592 0.000978 -0.430492 0.155064 -0.309360 -0.133724 -0.363258 -0.335800 0.784230 -0.282772 -0.122254 -0.336460 0.011252
大浪淘沙 0.445574 0.248196 0.449447 -0.187378 0.052388 0.238524 0.061856 -0.268733 0.135989 0.290921 0.089552 0.272790 -0.125833 0.123016 -0.369834 -0.560620 -0.296370 0.248225 0.506723 -0.152227 -0.076030 -0.030995 -0.339813 0.055128 0.312739 0.090229 -0.450550 0.282948 0.145813 0.103508 -0.061122 0.000221 0.124694 -0.219028 0.656368 -0.129187 -0.206035 0.471321 -0.289877 -0.010412 0.064351 -0.014753 0.082706 0.019597 -0.127614 0.035713 -0.201717 -0.344520 -0.106495 0.062000 0.011025 -0.089021 -0.540499 -0.271862 0.565846 0.196505 0.609835 -0.184368 -0.035960 -0.082935 0.462511 0.134957 0.338990 -0.297394 -0.171915 0.119372 0.120639 0.339940 -0.353439 -0.194946 -0.200112 0.347155 -0.084351 -0.060923 0.110230 0.528706 0.193991 0.352184 0.226961 -0.410498 0.205898 0.119564 0.145100 0.160296 0.795753 0.431285 -0.289759 0.028619 -0.674462 -0.426485 0.095825 -0.370566 -0.511911 0.141979 0.322933 -0.136356 0.166878 0.372206 -0.289344 -0.555382 0.191865 0.162443 0.321183 -0.043872 -0.110768 0.261124 0.269841 -0.217736 0.119662 -0.793767 -0.355450 -0.428136 -0.484946 -0.152584 -0.274682 -0.243132 -0.275840 -0.168347 0.095071 -0.515737 0.087924 0.144046 0.148121 -0.517161 0.134847 0.164199 -0.320449 0.029741 0.098626 0.271470 0.179666 -0.278181 0.084224 0.003752 -0.003312 0.114828 0.178716 -0.245034 -0.093092 0.031255 -0.595357 -0.212043 -0.398251 -0.188236 0.223947 0.336439 0.310831 0.310508 0.126203 0.422109 -0.481546 -0.011610 0.059949 -0.275151 -0.427626 -0.564239 0.415514 -0.078823 -0.121426 -0.092462 0.015201 -0.194084 -0.499475 0.198116 0.624282 0.204466 0.097780 0.086817 0.174419 -0.378096 -0.219029 -0.022613 -0.288910 0.098398 -0.009131 0.382981 -0.134049 0.531737 -0.047516 0.334396 0.232005 0.162085 -0.468094 0.663817 -0.033115 0.186376 -0.327630 0.566991 -0.144509 -0.198590 0.410932 0.088062 -0.163907 -0.329888 0.001017 0.657308 -0.061344 -0.119394 -0.216407 0.191564
整点 0.163369 -0.008807 -0.105641 -0.271997 -0.328947 -0.231438 -0.183220 -0.070745 0.181397 0.275258 0.028286 0.154250 0.007015 0.233794 0.091243 -0.215802 0.448670 -0.762546 0.325042 -0.282941 -0.366567 0.040743 0.025486 0.213601 0.242905 -0.120774 0.086437 0.195296 0.494711 -0.628182 0.223399 0.367201 0.173458 0.249426 0.157164 0.042945 0.075432 0.252697 -0.174806 -0.090428 0.074271 0.233102 -0.097907 0.274722 0.059527 -0.154121 -0.066910 -0.189906 0.138811 -0.107638 -0.431898 -0.095553 -0.237367 0.072503 0.320945 -0.074298 -0.074799 -0.371081 -0.285577 -0.100714 0.159427 0.039078 0.075503 0.144789 -0.172040 0.045319 -0.198355 0.178471 0.283533 -0.179200 -0.059310 -0.202078 -0.058400 0.261316 -0.023093 0.259778 -0.205976 0.180721 -0.163658 0.136522 0.416016 0.690040 -0.136624 0.455751 -0.033999 -0.431970 -0.057043 0.297415 -0.058043 -0.282406 -0.220847 -0.161584 0.519387 -0.156311 -0.314115 0.090319 -0.068166 0.261237 0.126728 -0.104168 0.244253 0.447314 0.029977 0.089652 -0.555023 -0.266777 0.327145 -0.435079 0.157968 0.210355 0.149582 0.094336 0.084244 -0.030546 -0.198809 -0.570698 -0.125051 0.087530 -0.076642 -0.636680 -0.182694 -0.258724 0.313738 -0.223157 -0.194949 0.280353 0.008785 0.166888 0.117368 -0.178031 0.055849 0.239476 -0.026724 0.082612 -0.001606 -0.090134 -0.053524 -0.342154 0.016016 0.023300 -0.077822 -0.310864 -0.233903 0.029411 0.208904 0.154944 -0.154740 -0.336051 0.237492 0.144987 -0.304079 0.031148 -0.352801 -0.073428 -0.135455 0.500920 0.328702 0.169900 0.531459 -0.003508 0.525338 -0.246167 -0.227485 0.396142 -0.027628 0.641050 0.014178 0.317537 0.290026 -0.077215 0.135039 0.027032 0.074451 0.180803 0.188147 -0.196993 -0.282883 -0.298061 0.260088 -0.231040 0.082570 -0.224633 -0.349905 0.102371 -0.349611 0.110386 -0.569257 0.030506 -0.356595 0.000561 -0.046852 0.216982 0.213807 0.002500 -0.068840 0.764682 0.141225 -0.219241 0.055534 0.199823
要住 0.106901 -0.013050 0.170962 0.218542 0.052960 -0.153835 0.245746 -0.262377 0.272109 -0.406632 -0.127354 0.043024 0.730534 -0.501321 -0.274713 0.095505 0.146077 -0.246366 0.252353 -0.018908 0.287093 0.139896 0.083608 0.155882 0.539214 0.128006 -0.677198 0.208173 0.392418 0.248322 0.175947 -0.025210 0.196431 -0.086294 -0.429409 -0.409680 -0.069515 0.536874 -0.088878 -0.228111 0.132195 -0.004734 0.223025 -0.176023 -0.627402 -0.104739 0.046725 -0.599936 -0.236813 0.367455 -0.362998 -0.100540 -0.168698 -0.104938 -0.147096 0.145004 -0.014201 0.083568 0.064166 0.721102 -0.196337 0.056351 0.108027 -0.040369 0.047462 0.077809 0.064589 0.175108 -0.257394 0.012200 -0.619097 -0.319575 0.164946 -0.024527 -0.068172 -0.339875 -0.059652 -0.213575 -0.175859 0.124712 0.085098 0.131462 -0.420020 0.317184 -0.100658 0.021278 -0.374778 0.519278 -0.269073 -0.335628 0.217258 0.124750 0.038508 0.299922 -0.125941 -0.062653 -0.136564 -0.438516 -0.093666 0.345506 -0.116500 0.493122 -0.068707 0.319974 -0.221499 -0.296739 0.403909 -0.602499 -0.051913 -0.174247 0.259024 0.210147 -0.328636 -0.196678 -0.160070 0.501166 -0.038698 0.222830 0.384610 -0.312395 0.320469 0.124473 -0.074678 -0.279072 -0.038025 -0.125414 0.030908 0.066105 -0.128124 0.006102 0.193382 0.035045 -0.015531 0.522290 0.101861 0.241795 0.019561 -0.059259 -0.844158 0.299389 0.278866 0.054069 -0.374922 -0.500502 -0.192964 -0.734671 -0.065409 0.184919 -0.005020 0.017710 -0.548164 0.583734 -0.110682 0.137663 -0.669033 0.005248 0.029816 0.041227 0.355511 -0.704890 0.033876 0.309008 -0.040362 0.073292 0.728527 0.180294 -0.187599 0.300345 0.411678 -0.055033 0.250622 -0.037951 -0.086573 0.372113 -0.120015 -0.183917 0.046687 -0.214345 -0.087557 0.233567 0.139242 -0.317637 -0.283047 -0.065949 0.371383 -0.028155 -0.116482 0.352085 -0.215232 -0.343685 -0.160422 -0.136980 -0.092315 0.148642 0.157549 0.385615 -0.189241 0.133956 -0.031511 -0.164966
拆机 0.373770 -0.142153 -0.340560 0.459538 0.023635 -0.065866 -0.602200 -0.195466 0.184290 0.014543 -0.323794 -0.094018 -0.002514 -0.407082 0.091956 0.505925 0.127932 -0.595049 -0.093607 -0.412588 -0.125685 -0.094622 0.363287 0.178968 0.526455 -0.197521 0.012125 0.269708 0.896251 -0.025936 -0.047256 -0.030752 -0.065840 0.199957 -0.280462 0.094398 -0.133620 0.044644 -0.141259 0.485773 0.108021 0.316784 -0.002686 -0.086269 0.496268 -0.242398 -0.165291 0.075031 -0.001583 0.147836 0.274664 -0.526223 -0.374436 -0.136067 0.027700 0.319920 0.081348 0.226787 0.097546 0.381291 0.282321 0.670770 -0.432222 -0.105536 -1.013275 -0.272039 0.052566 0.375673 0.145921 -0.084766 -0.316068 0.260828 0.742356 0.532956 0.068414 0.487451 0.144287 -0.383982 0.141228 -0.275569 0.084333 -0.180797 0.074481 -0.046167 -0.090850 0.015563 -0.638669 0.029421 -0.443109 -0.453974 0.319679 -0.275994 -0.187558 -0.272046 0.233250 0.499754 0.153741 -0.183163 -0.390925 -0.754901 0.090390 0.039476 -0.135547 -0.231733 -0.177264 -0.145332 0.304150 -0.359678 0.521847 -0.060229 0.560514 -0.157510 0.048960 0.204585 0.256916 0.141570 0.084559 -0.044510 0.095878 -0.185669 0.122852 -0.215049 -0.078383 -0.219811 0.614004 0.227919 -0.193013 0.349167 0.083452 -0.116291 -0.361932 -0.304388 -0.112224 -0.247440 -0.173344 0.265840 0.046958 -0.139154 0.042371 0.291139 -0.101294 -0.409275 -0.280101 -0.277876 0.310272 0.034475 -0.203295 0.304256 0.209009 0.174321 0.074995 0.243740 0.200578 -0.002902 -0.063174 0.267043 0.107481 -0.257136 0.238097 0.135046 0.243158 0.135778 -0.234091 0.112544 0.333855 -0.113757 -1.139618 0.195068 0.591271 -0.481319 0.447252 -0.402699 0.155776 -0.072738 -0.353769 0.252440 -0.101599 0.169034 0.121979 0.193983 0.313116 -0.317829 0.147418 0.688141 -0.386577 0.093706 -0.155696 0.337402 -0.012586 0.046226 -0.195177 -0.316168 -0.005789 -0.006075 -0.174980 0.104283 0.243646 -0.098901 -0.473385 -0.252196
若风 0.271800 -0.124459 -0.046258 -0.175495 -0.268346 -0.350745 0.624189 -0.066180 0.308063 0.277617 0.268966 0.262336 0.013445 -0.549915 0.261332 -0.228741 -0.089853 -0.036717 -0.241858 0.112285 0.120270 0.062753 -0.078346 0.027886 -0.112015 0.011686 0.279658 0.191249 0.553611 -0.062084 0.212893 -0.502107 0.436840 0.629090 0.152902 -0.241538 -0.046145 0.015195 -0.483805 -0.521153 0.579896 -0.723327 0.116076 -0.177486 0.635320 -0.121172 -0.013949 -0.103899 -0.033920 -0.064111 -0.467483 0.046621 -0.272873 -0.146426 0.578302 0.555884 -0.006273 0.120657 0.527892 0.142772 -0.126460 0.514846 0.677279 -0.081695 -0.087265 -0.328246 -0.133277 0.162343 0.170705 -0.520108 -0.752294 0.089928 0.124867 0.237230 0.127028 0.691541 0.118474 0.224450 0.263469 -0.164715 0.030978 -0.277407 0.142592 -0.186442 -0.155464 -0.128214 -0.137086 0.719060 -0.161868 0.192747 0.029101 -0.338343 -0.166793 -0.426937 -0.255426 -0.035714 0.486534 0.232000 -0.414095 0.059545 0.070397 0.241181 -0.060388 -0.432472 -0.349342 0.194579 0.004763 -0.217030 0.477908 -0.177143 -0.239797 0.102150 -0.071744 0.203150 0.325375 -0.090791 0.475089 -0.245557 0.002817 0.189752 0.239540 -0.308273 -0.293223 0.049039 0.348293 -0.279350 0.028805 0.285079 -0.086931 -0.015578 -0.178922 0.041088 0.326931 0.387831 -0.185003 0.387163 -0.025964 -0.111149 0.770689 -0.117973 -0.030867 -0.915107 -0.159732 0.170609 -0.013546 -0.118411 -0.114449 -0.186155 0.219676 -0.026458 -0.196057 0.119457 0.094990 -0.286189 -0.138245 0.090149 0.210081 0.366159 0.038023 -0.272732 0.539963 0.285244 0.232894 0.492065 0.114673 -0.104073 -0.050300 0.292797 0.439864 -0.160479 -0.249387 0.442110 0.145829 0.167203 -0.323473 -0.150103 -0.051559 -0.339506 0.021749 0.424228 -0.281305 0.342827 -0.323268 -0.017087 0.308663 0.622978 -0.111976 0.667877 0.293646 -0.360002 -0.223573 -0.245416 0.541591 0.323277 0.313079 0.482306 -0.218287 -0.212047 -0.288991 -0.324424
蓝后 0.280338 -0.268526 0.133308 0.095199 0.344150 -0.519801 -0.254200 -0.117006 0.359698 0.172381 -0.044740 -0.049688 0.155754 -0.133682 -0.054977 -0.092604 -0.147256 -0.590266 -0.207321 -0.363901 0.115153 0.055897 0.220881 0.714064 0.180686 -0.315411 0.123923 0.005911 0.401795 0.135830 0.177424 0.181911 -0.035218 0.192138 -0.162605 -0.124655 0.233005 -0.265650 0.112131 0.087162 0.174536 0.055170 0.373017 0.164983 0.341598 -0.094947 -0.252430 -0.019199 0.033080 -0.008403 -0.155910 0.392963 -0.043084 0.403551 0.091311 0.182805 0.069389 0.200338 0.012728 -0.209644 0.166617 -0.011610 0.248668 -0.377674 -0.410496 -0.243950 0.052448 0.455057 0.335505 -0.215918 -0.027456 0.293333 0.064907 0.184588 0.019406 0.013464 0.130179 0.069544 -0.059405 -0.281066 0.133978 0.040720 -0.425929 0.074856 0.303520 -0.154739 -0.186232 0.210577 0.030925 -0.108747 0.098377 0.014772 0.335185 0.113435 -0.192033 0.405672 0.043530 0.156612 -0.156293 0.158558 -0.314235 0.305038 0.187399 -0.092706 -0.090695 0.147669 0.197069 -0.181617 -0.146753 0.025338 0.221548 0.415501 0.043887 -0.312567 0.129862 0.028581 0.066086 -0.196550 0.032030 0.141437 0.357417 -0.312806 0.172136 -0.297102 0.126126 0.094461 0.306479 -0.258158 0.277469 0.081708 0.026737 0.021504 -0.140090 0.179124 -0.043281 0.214108 -0.130536 0.089617 -0.055996 0.320065 0.016494 0.009026 0.011432 -0.252236 0.027325 -0.280163 -0.192751 -0.087408 0.143726 0.216163 -0.535631 0.170665 -0.109727 0.018974 0.027001 0.245320 0.155843 -0.021097 0.104381 -0.120097 0.441200 0.427225 -0.290240 0.222331 0.329084 0.618784 -0.206521 0.312969 0.594100 -0.098387 -0.336084 0.126083 0.127802 0.034340 -0.086894 -0.387694 -0.155439 -0.206320 -0.270048 -0.177975 -0.372964 -0.306602 -0.115163 0.100329 -0.195903 -0.317875 -0.165516 0.195558 -0.122476 -0.184669 0.028345 0.214919 -0.271455 -0.000726 -0.049112 0.223520 -0.152074 0.200734 0.026708 -0.322419
华联 0.300281 -0.389647 -0.242867 -0.155190 -0.455891 -0.231701 0.045268 -0.311082 0.037596 0.354169 -0.132318 -0.059889 0.029984 -0.148827 -0.057579 0.147122 -0.274827 -0.370096 0.351050 0.036782 0.313437 0.065535 0.244287 -0.016327 0.111474 -0.182868 -0.278794 0.081723 0.085172 0.407870 0.051931 0.085696 -0.203500 0.317371 -0.194258 -0.390166 0.003332 0.117540 -0.033231 0.175150 0.059855 -0.049514 -0.038345 0.364231 0.145600 -0.456509 -0.224847 0.219813 -0.061263 0.012690 -0.098813 -0.039793 -0.175577 -0.282213 0.115231 -0.254817 0.101039 0.056661 -0.342130 0.023235 0.424497 0.024326 0.333010 -0.108755 -0.445372 -0.148510 0.146225 -0.053258 0.411219 -0.092584 -0.318977 -0.090587 -0.188523 0.231530 -0.237973 -0.306290 0.170626 0.740373 -0.026442 0.038427 0.351111 0.212243 -0.197910 0.205846 -0.104671 0.026920 -0.379677 0.020473 -0.086874 -0.133340 0.360284 0.042240 0.032776 -0.181028 0.343753 -0.000831 -0.159293 0.072648 -0.062439 -0.028202 0.031955 0.039996 0.188381 -0.071256 0.009068 -0.141929 0.070980 -0.134895 0.206139 -0.110963 -0.039469 0.310477 -0.085272 -0.319912 -0.375992 -0.257056 0.159882 -0.254535 0.011863 0.096586 0.173389 -0.336765 0.005621 -0.399347 0.414993 0.067503 -0.149397 -0.149003 0.097858 -0.296672 -0.256347 -0.119606 -0.014576 0.337047 0.048342 -0.190196 0.186296 -0.153848 0.004794 0.294921 0.072053 -0.015108 -0.405622 -0.312370 -0.047735 0.242224 0.128535 -0.262796 -0.150949 -0.023647 -0.371957 -0.139427 -0.334369 0.164818 -0.227092 -0.380652 0.314758 -0.183427 0.434385 0.226541 0.614291 0.205144 0.106525 0.431605 0.199624 0.366421 -0.221290 0.193874 -0.165128 -0.335982 -0.094644 0.035396 -0.062759 0.080149 0.071477 0.052341 -0.786387 -0.188987 -0.062921 0.142495 0.062366 -0.034158 -0.420719 0.106249 0.071482 0.578248 0.039371 0.553134 -0.171534 -0.207997 0.348497 0.477416 -0.025026 0.008448 0.300989 0.429129 -0.372593 -0.184803 0.527289 0.114437
心得体会 -0.064449 0.134952 0.269853 -0.165416 0.168514 0.049788 0.002184 0.534547 -0.359486 0.023546 -0.231316 0.256614 0.144064 -0.600281 0.093848 -0.348114 0.045175 0.192998 -0.236282 -0.480905 0.084961 0.399903 -0.052635 0.309649 0.176613 0.062231 -0.440898 0.059488 0.020756 0.175521 0.023229 -0.019569 -0.061316 -0.068421 0.040516 0.113847 0.105977 0.014612 -0.070493 0.020532 -0.064623 -0.242794 0.421211 -0.055879 0.057026 -0.301190 -0.487952 -0.291060 -0.334947 0.248972 0.348839 -0.479208 -0.611276 0.061383 0.703691 0.562366 -0.063823 -0.015530 0.136886 -0.087235 0.312463 0.043823 0.253109 -0.299778 -0.143819 0.258632 -0.103105 0.171417 0.000168 0.086928 -0.276952 0.293191 0.178312 0.026336 0.024760 0.188825 0.263530 -0.154577 -0.141862 0.024496 0.163290 -0.248355 -0.198568 0.297648 -0.037869 -0.055721 -0.038104 0.333192 -0.290541 -0.229211 -0.246253 0.257448 0.121786 0.075198 0.049547 -0.266944 0.239143 0.452131 0.202519 -0.116405 0.175782 0.129801 -0.228233 -0.287615 -0.304323 -0.199959 -0.156767 -0.684847 0.025625 0.081390 0.327803 -0.164469 0.124294 0.065663 -0.246056 -0.205740 0.084070 -0.245036 0.096444 -0.444873 0.445943 -0.065090 0.083475 0.024759 0.419296 0.144334 -0.038362 -0.225929 0.041526 -0.202645 0.012253 0.277061 -0.027374 -0.149491 -0.143029 0.064434 -0.249630 -0.217916 -0.074294 -0.308519 -0.376048 -0.246805 0.012363 -0.296725 -0.167462 0.311446 0.614198 -0.271469 0.310954 0.091733 -0.106572 0.186631 -0.349221 -0.245854 -0.405099 -0.150355 0.508177 0.472082 0.098490 -0.307793 0.236956 0.097203 0.343216 0.241965 -0.015189 0.056014 -0.551056 -0.052547 0.322614 0.008437 0.054757 -0.507090 -0.067981 0.086223 -0.537105 0.010093 -0.308981 0.290704 0.086921 0.675199 -0.134852 0.192744 -0.049194 0.011351 -0.194935 -0.044938 -0.218911 0.349466 0.087754 0.355545 0.431936 0.005250 0.448171 0.236656 0.103287 0.207389 0.151772 0.163946 -0.256697 0.042579
留情 0.288054 -0.111550 0.204416 0.329457 0.343362 0.097318 0.143163 0.198188 0.158930 0.030320 -0.092323 -0.078747 0.141186 -0.187626 0.448479 0.121267 -0.735361 0.284704 -0.044304 -0.139596 0.123753 0.549019 -0.158280 -0.015703 0.188411 -0.129305 -0.038854 -0.175142 0.303626 0.030626 0.365933 -0.234084 0.336078 -0.154550 -0.363635 -0.373804 0.358280 0.398400 0.100989 -0.288823 0.033307 -0.158572 0.428091 -0.085206 0.056286 -0.278720 -0.187994 -0.203244 -0.039517 0.046324 -0.265855 0.069042 -0.145187 -0.045373 0.505965 -0.079119 0.128090 0.002592 -0.192295 0.300921 0.073273 0.360772 0.004335 -0.251650 0.280648 -0.170498 -0.279056 0.398706 -0.327673 0.102436 -0.588761 0.008330 0.374452 0.065576 -0.068969 -0.106051 0.094379 0.115145 -0.142379 0.189921 -0.056499 0.255327 -0.598459 -0.162080 0.381166 -0.131955 -0.389544 0.510988 -0.172396 -0.337393 -0.097794 -0.176030 0.434272 0.234457 0.121173 0.191924 0.278609 0.452689 -0.156507 -0.597887 0.330126 0.035359 -0.196289 0.109824 -0.120115 0.216806 0.443993 -0.102322 0.167957 0.150564 -0.199269 -0.102121 0.111818 -0.047331 -0.052209 0.191820 -0.119733 -0.471246 -0.046451 -0.553440 0.289921 -0.010179 -0.223944 0.150599 0.193779 -0.123188 0.073395 0.156812 0.149148 -0.285189 0.283161 0.053446 -0.166758 0.045790 0.187783 -0.069119 -0.183878 -0.288649 0.140079 0.073046 -0.304954 -0.443717 -0.672359 0.238253 0.083817 0.048593 0.138769 -0.696997 -0.297097 -0.046816 -0.059700 -0.512933 -0.213722 0.031087 0.160254 -0.195700 -0.051046 -0.111844 0.337868 0.124899 -0.043525 0.220502 0.107343 -0.010451 0.212772 0.095491 -0.251810 0.540904 0.198348 -0.101908 -0.075763 -0.337149 0.030762 0.043636 -0.088799 0.019669 0.104476 -0.116680 -0.308612 -0.329727 0.728546 -0.094959 -0.582957 0.297948 -0.254212 0.214700 -0.466354 0.147665 0.347584 -0.167172 0.150921 -0.245640 0.303644 -0.084246 0.076367 0.540595 -0.098319 -0.123600 -0.306726 -0.256222
市气象台 1.213753 0.360784 -0.321896 0.529549 0.248405 -0.258202 0.313040 -0.196731 -0.328067 -0.150490 0.213008 0.137212 0.019084 -0.007636 -0.315084 -0.114037 -0.362034 -0.350015 0.352648 0.341332 -0.217433 -0.024610 0.595893 0.454632 -0.662928 0.224426 -0.325945 0.074890 -0.294334 -0.020393 0.231706 -0.026247 0.551915 0.666395 0.032800 0.165718 0.571249 -0.037972 -0.461108 -0.292618 0.825502 -0.086102 0.524483 -0.379923 0.193866 -1.240207 -0.812925 0.155924 0.609315 0.345357 -0.633681 0.068840 -0.420891 0.574786 0.203388 -0.118395 -0.138524 -0.120130 -0.511066 -0.163205 -0.411621 0.519111 0.046489 -0.009943 -0.383373 -0.323198 -0.154178 -0.032506 0.216486 0.165803 -0.645275 0.436735 0.141375 -0.460107 -0.192650 -0.460431 -0.181299 0.200677 -0.370835 0.186253 -0.082978 0.595626 -0.186510 0.305749 0.271546 -0.361384 0.085581 -0.261513 -0.413571 -0.020997 -0.329722 0.196973 -0.243961 0.146305 -0.098218 0.030121 -0.084012 0.567899 0.106905 0.096785 0.573229 -0.084095 -0.146359 0.061542 -0.332000 0.132283 0.553173 -0.436787 0.248719 -0.182046 0.018556 -0.203587 -0.072273 0.633912 0.459348 -0.198774 -0.654425 0.512252 0.124256 -0.531461 0.129621 0.264699 0.493200 0.062146 0.182060 -0.230591 -0.334467 0.081152 -0.064969 0.177419 -0.108315 -0.057457 0.160893 0.252859 -0.203355 0.052935 0.454341 -0.518898 0.273718 0.144882 -0.855639 -0.462795 0.098686 0.297413 -0.370983 0.133859 -0.091987 0.294294 0.091779 -0.008703 0.025065 0.107588 -0.143458 -0.099653 0.297613 -0.204576 -0.030948 0.348213 1.465500 -0.459485 1.000769 -0.361153 -0.284647 0.614527 0.398631 0.484076 -0.165673 -0.244763 0.602098 0.659723 0.021497 -0.531186 -0.095794 -0.160153 -0.907856 -0.166268 0.931458 -0.101241 -0.179279 -0.313441 0.249154 -0.621294 0.086824 -0.295982 -0.395175 0.549289 0.031981 0.366422 -0.202107 -0.198152 -0.063500 0.237308 0.133426 0.603698 -0.479597 0.522087 0.057557 0.462519 -0.556272 0.354704
1月8日 0.215768 -0.050450 -0.340844 0.527451 0.173652 -0.029720 0.303432 0.375885 -0.182229 0.013981 -0.375915 0.422077 0.104409 0.337909 -0.095463 -0.090011 0.177662 -0.364371 -0.283019 -0.192589 -0.290420 0.165445 -0.180725 0.346316 0.253693 0.186992 -0.146835 0.245733 -0.123178 -0.009416 0.038541 0.235781 0.180386 -0.077916 0.009589 -0.273591 0.449782 -0.027957 -0.466366 0.153295 0.225559 0.147539 0.373521 0.203700 0.033526 -0.252300 0.169134 -0.332857 0.108159 -0.146948 -0.292862 0.050838 -0.242887 0.138829 0.014187 -0.064105 0.275066 0.265701 -0.084891 -0.427435 0.059758 0.654380 0.246176 -0.053950 -0.388483 -0.354776 0.318421 -0.042925 -0.309760 0.011827 -0.315400 0.122724 0.084657 0.022436 -0.397007 -0.121207 -0.493666 0.425042 0.072984 -0.044190 0.223125 0.257565 -0.007459 0.548405 -0.288163 -0.319433 0.054432 -0.260212 -0.034722 0.050309 0.074949 0.085879 0.083662 -0.163103 -0.269868 -0.027173 -0.123627 0.274211 -0.296339 0.222828 0.037191 -0.008202 -0.166291 -0.267795 -0.112488 0.135452 0.364389 -0.291885 -0.354021 -0.297348 0.249738 0.108673 -0.072328 -0.110909 0.541200 -0.514391 -0.048678 0.052167 0.077495 0.012766 -0.569613 -0.115666 -0.139214 -0.240849 -0.147106 0.572800 -0.241321 0.112172 0.141097 -0.094271 0.165128 0.067719 0.314547 0.043117 -0.187298 -0.437928 0.074656 -0.586556 0.140089 0.317736 0.205975 -0.203866 -0.012688 0.110111 0.132241 -0.078824 0.204461 0.301635 0.225646 -0.001024 -0.525361 -0.041438 -0.111160 -0.315908 0.055440 0.073455 0.348994 0.083489 0.488974 0.105627 0.639127 -0.295357 0.094748 0.522105 0.028023 -0.041298 -0.462072 0.077473 0.256843 -0.036851 0.496577 -0.148817 -0.403357 0.042026 -0.114247 -0.179141 0.067259 -0.799096 0.032308 0.181808 -0.097357 0.052576 -0.288275 0.225352 -0.017322 0.580289 0.021684 0.220415 -0.328172 0.020548 0.227078 0.546666 0.293354 0.106191 -0.047313 0.796459 0.112481 -0.426393 -0.243279 0.057783
